<?xml version="1.0"?>
<opencv_storage>
<opencv_ml_svm>
  <format>3</format>
  <svmType>C_SVC</svmType>
  <kernel>
    <type>CHI2</type>
    <gamma>10.</gamma></kernel>
  <C>10.</C>
  <term_criteria><iterations>10000</iterations></term_criteria>
  <var_count>36</var_count>
  <class_count>2</class_count>
  <class_labels type_id="opencv-matrix">
    <rows>2</rows>
    <cols>1</cols>
    <dt>i</dt>
    <data>
      -1 1</data></class_labels>
  <sv_total>1045</sv_total>
  <support_vectors>
    <_>
      3.54263037e-01 1.73214749e-02 3.68708931e-02 9.32058133e-03
      2.50088573e-01 9.55297891e-03 2.80450005e-02 1.32168066e-02
      3.54263037e-01 3.54263037e-01 5.97153939e-02 1.04211368e-01
      2.87147220e-02 3.54263037e-01 8.20081532e-02 2.95600295e-01
      1.46959662e-01 3.54263037e-01 1.51476299e-03 3.18568409e-03
      1.26730287e-02 5.68163581e-03 2.15115979e-01 3.20234359e-03
      9.60683683e-04 7.19354663e-04 1.40238903e-03 2.58268812e-03
      1.65416917e-03 1.37704390e-03 6.94358582e-03 3.54263037e-01
      1.17564881e-02 2.08304785e-02 4.63265087e-03 2.07168632e-03</_>
    <_>
      1.30964639e-02 7.85239693e-03 2.11609080e-02 3.55267227e-02
      4.01284993e-01 2.22795326e-02 1.34825492e-02 6.19795546e-03
      1.36582917e-02 2.32418522e-01 1.42891124e-01 1.89263552e-01
      1.15642764e-01 4.01284993e-01 3.40020388e-01 2.26099953e-01
      6.61534443e-02 2.06261575e-01 1.76777039e-02 6.98113535e-03
      1.98098533e-02 3.37510519e-02 4.01284993e-01 2.01244149e-02
      1.41813355e-02 6.34278962e-03 1.73744727e-02 5.32892682e-02
      2.61514019e-02 2.12577824e-02 1.39170513e-02 4.01284993e-01
      4.06865478e-02 2.49065012e-02 1.09374849e-02 4.83285263e-02</_>
    <_>
      2.79322535e-01 5.15866466e-02 1.16372615e-01 1.55556714e-02
      1.55346885e-01 9.15369391e-03 9.04698111e-03 1.05349915e-02
      2.79322535e-01 2.79322535e-01 1.80043191e-01 2.79322535e-01
      9.76175517e-02 2.79322535e-01 4.42901589e-02 2.61195600e-02
      3.44965607e-02 2.79322535e-01 7.01849386e-02 1.91928536e-01
      2.79322535e-01 4.49750647e-02 2.56011367e-01 2.52332594e-02
      3.94320711e-02 3.11458893e-02 5.29410578e-02 1.30073845e-01
      2.79322535e-01 2.79322535e-01 6.31403551e-02 2.45135158e-01
      3.47918868e-02 4.09055762e-02 4.23170626e-02 8.61527994e-02</_>
    <_>
      2.70395577e-01 1.02783822e-01 2.42514983e-01 2.63926815e-02
      1.88736379e-01 2.50337962e-02 2.89456658e-02 1.54570742e-02
      2.70395577e-01 2.70395577e-01 2.70395577e-01 2.70395577e-01
      5.63620850e-02 2.68060714e-01 6.21678531e-02 4.34726253e-02
      3.02949194e-02 2.70395577e-01 7.96706155e-02 8.67149606e-02
      1.95484474e-01 2.82196067e-02 1.87180877e-01 1.88730191e-02
      1.09346598e-01 4.65101227e-02 7.61018470e-02 1.97960943e-01
      2.30647400e-01 2.70395577e-01 4.60931621e-02 1.92922920e-01
      3.56129445e-02 1.26298606e-01 6.45208359e-02 1.87353760e-01</_>
    <_>
      2.95666903e-01 1.65725555e-02 9.13508534e-02 5.69503345e-02
      2.95666903e-01 1.44727994e-02 8.20322055e-03 5.78884361e-03
      2.95666903e-01 2.71448284e-01 2.02752277e-02 1.72794178e-01
      1.14795901e-01 2.95666903e-01 2.65508704e-02 1.78941190e-02
      1.21116294e-02 2.75021046e-01 5.74428402e-02 1.32793531e-01
      2.95666903e-01 1.15510076e-01 2.95666903e-01 2.44418178e-02
      1.80369057e-02 1.37344832e-02 4.64084335e-02 6.60715625e-02
      1.36373624e-01 2.95666903e-01 1.63830668e-01 2.95666903e-01
      3.32419276e-02 2.31008902e-02 1.48948384e-02 4.87403981e-02</_>
    <_>
      1.75327405e-01 4.69200350e-02 8.62196907e-02 6.07690513e-02
      2.99507737e-01 3.73695754e-02 3.87320481e-02 2.23727655e-02
      1.75667524e-01 2.99507737e-01 1.64879039e-01 2.99507737e-01
      1.18352689e-01 2.99507737e-01 8.68178904e-02 1.27043799e-01
      6.76030815e-02 2.99507737e-01 1.39092237e-01 2.29983255e-02
      3.17364186e-02 3.17981988e-02 2.99507737e-01 1.89169124e-02
      1.51143763e-02 1.28900744e-02 1.40127838e-01 2.79623449e-01
      7.58470744e-02 1.18838772e-01 3.89143378e-02 2.99507737e-01
      3.41652855e-02 3.07729151e-02 2.62782071e-02 2.76844412e-01</_>
    <_>
      1.31828696e-01 4.72673662e-02 1.01354972e-01 5.34432270e-02
      3.12997222e-01 3.90257612e-02 5.17905615e-02 2.04327982e-02
      1.24440491e-01 3.12559515e-01 1.92474216e-01 3.12997222e-01
      9.04830620e-02 3.12997222e-01 9.12051722e-02 8.96478295e-02
      4.30524461e-02 3.09060007e-01 6.18564412e-02 2.15800833e-02
      5.34666628e-02 3.09364721e-02 3.12997222e-01 1.98887754e-02
      3.15694809e-02 1.07573094e-02 5.69115914e-02 2.15124309e-01
      1.08645432e-01 2.65921712e-01 4.63263355e-02 3.12997222e-01
      4.98527065e-02 6.48929328e-02 2.76174229e-02 2.15118319e-01</_>
    <_>
      2.88149208e-01 4.61638831e-02 6.76555336e-02 1.60504431e-02
      2.88149208e-01 1.00914631e-02 3.92087325e-02 2.02547740e-02
      2.88149208e-01 2.88149208e-01 1.37571827e-01 1.83494627e-01
      2.05972232e-02 2.88149208e-01 1.70457587e-02 7.44210109e-02
      3.18523832e-02 2.88149208e-01 2.73827523e-01 4.78013465e-03
      1.36603024e-02 6.86382689e-03 2.88149208e-01 5.58101805e-03
      8.32433440e-03 4.47191158e-03 2.74496794e-01 2.38326237e-01
      4.73613897e-03 1.11593120e-02 5.59444493e-03 2.88149208e-01
      3.72277456e-03 6.68322807e-03 3.23934294e-03 2.37166151e-01</_>
    <_>
      3.92892119e-03 2.83429935e-03 9.42409039e-03 8.94615799e-03
      1.02575548e-01 1.90354809e-02 1.50023988e-02 3.67423566e-03
      4.30263625e-03 4.14245665e-01 1.99623078e-01 3.46680164e-01
      1.63546324e-01 4.14245665e-01 2.83309370e-01 3.06451440e-01
      9.22648758e-02 4.14245665e-01 7.50880747e-04 4.47965198e-04
      4.67249745e-04 5.35384694e-04 1.15645798e-02 3.51423584e-03
      1.56990835e-03 3.77301272e-04 7.35171139e-04 1.60117045e-01
      5.71097210e-02 4.57893834e-02 1.59280840e-02 2.06740797e-01
      5.72864562e-02 4.28173468e-02 1.47128841e-02 1.44164398e-01</_>
    <_>
      1.56654984e-01 6.05000593e-02 1.31849304e-01 3.89245562e-02
      3.00655246e-01 3.13961804e-02 4.32455763e-02 2.21254621e-02
      1.50219470e-01 3.00655246e-01 1.98779777e-01 3.00655246e-01
      6.98394850e-02 3.00655246e-01 8.44061375e-02 5.57399280e-02
      3.10322139e-02 2.99642354e-01 6.19387887e-02 4.40750457e-02
      9.82020572e-02 2.13885885e-02 3.00655246e-01 1.78615171e-02
      4.45038453e-02 1.71393454e-02 6.21196702e-02 2.11243883e-01
      1.59157112e-01 3.00655246e-01 4.03668880e-02 3.00655246e-01
      4.36366089e-02 5.98816685e-02 2.74710022e-02 2.13767901e-01</_>
    <_>
      2.88928151e-01 7.28811026e-02 1.09472103e-01 4.91679870e-02
      3.03362459e-01 3.29330750e-02 4.40471843e-02 2.78178193e-02
      2.77096719e-01 2.69065499e-01 1.69628695e-01 2.65810311e-01
      6.61711395e-02 3.03362459e-01 4.69604470e-02 4.61951904e-02
      2.88291350e-02 2.34439194e-01 2.42293373e-01 1.87519696e-02
      2.64528841e-02 2.49390006e-02 3.03362459e-01 1.71102174e-02
      1.71191134e-02 1.11825131e-02 2.40642473e-01 2.08610207e-01
      3.40832882e-02 5.13838381e-02 1.96722206e-02 3.03362459e-01
      2.40528230e-02 1.80378351e-02 1.04961032e-02 2.02541977e-01</_>
    <_>
      1.28030002e-01 3.20134982e-02 7.75630772e-02 2.89340187e-02
      3.35230589e-01 1.66012533e-02 2.04097852e-02 1.59936156e-02
      1.25770226e-01 1.85137093e-01 1.10871866e-01 2.85739094e-01
      4.62461486e-02 3.35230589e-01 2.59203501e-02 1.53645696e-02
      1.42075988e-02 1.83627978e-01 1.27034843e-01 5.55426702e-02
      1.22628339e-01 2.84890160e-02 3.35230589e-01 2.08259840e-02
      1.81361232e-02 1.20201511e-02 1.28986254e-01 2.43728206e-01
      2.36533806e-01 3.35230589e-01 5.41907549e-02 3.35230589e-01
      3.99176590e-02 3.61351296e-02 3.03594712e-02 2.31966034e-01</_>
    <_>
      2.34701067e-01 4.56847474e-02 9.87132862e-02 3.53038982e-02
      3.24675202e-01 3.38051729e-02 1.05126567e-01 4.39286940e-02
      2.40681052e-01 8.35416988e-02 5.07691130e-02 1.30720958e-01
      5.06747775e-02 3.24675202e-01 2.95912027e-02 8.58561769e-02
      3.54547687e-02 8.28249082e-02 1.74461603e-01 1.59362167e-01
      3.24675202e-01 5.01446426e-02 3.24675202e-01 4.05916795e-02
      4.19265442e-02 3.20349224e-02 1.72429070e-01 1.46300703e-01
      1.81193650e-01 3.24675202e-01 6.40538037e-02 3.24675202e-01
      4.49592508e-02 5.66550903e-02 3.20792198e-02 1.46192655e-01</_>
    <_>
      3.30119133e-01 2.37009674e-02 2.88126674e-02 1.04446020e-02
      9.80192721e-02 1.33889932e-02 8.60610604e-03 3.32518690e-03
      3.30119133e-01 2.95683533e-01 1.81975424e-01 2.40391970e-01
      9.88890156e-02 3.30119133e-01 1.17058031e-01 4.97927703e-02
      2.05410179e-02 2.91152805e-01 5.60316443e-03 4.70184907e-02
      4.45825681e-02 1.85931940e-02 1.80003390e-01 3.26651633e-02
      1.40087381e-02 4.48836945e-03 5.49021643e-03 3.60872746e-02
      2.63387710e-01 3.30119133e-01 1.15687832e-01 3.30119133e-01
      1.50633067e-01 6.49744049e-02 2.49022488e-02 3.26929912e-02</_>
    <_>
      2.95155168e-01 9.00481641e-02 2.42850244e-01 8.01715553e-02
      2.95155168e-01 2.78324801e-02 8.68590549e-02 4.07545157e-02
      2.95155168e-01 2.95155168e-01 9.65860263e-02 2.36179307e-01
      8.19378272e-02 2.95155168e-01 3.16113643e-02 8.95622820e-02
      4.17844988e-02 2.95155168e-01 1.40884072e-01 7.00059310e-02
      1.81499794e-01 4.91850823e-02 2.95155168e-01 1.33331520e-02
      1.58259608e-02 9.18874703e-03 1.29565105e-01 1.20297953e-01
      6.93347454e-02 1.71642765e-01 4.60759476e-02 2.84213632e-01
      1.20840603e-02 1.22446921e-02 7.16724200e-03 1.08415812e-01</_>
    <_>
      1.00110814e-01 1.27622439e-02 2.99559087e-02 5.74372001e-02
      4.36909676e-01 3.81481089e-02 2.14264616e-02 1.17662717e-02
      1.04860708e-01 1.67481244e-01 5.54956160e-02 7.77367055e-02
      4.92349230e-02 4.36909676e-01 1.46232516e-01 1.07082173e-01
      2.58607231e-02 1.47569418e-01 1.54783875e-01 1.60020255e-02
      3.07709239e-02 4.60426137e-02 4.36909676e-01 2.90567204e-02
      2.09360458e-02 1.35955503e-02 1.56435311e-01 1.60946235e-01
      1.42890504e-02 1.60602350e-02 2.54548378e-02 4.36909676e-01
      3.28007042e-02 3.09560969e-02 1.59933809e-02 1.65010527e-01</_>
    <_>
      3.30990218e-02 6.63863029e-03 1.41346725e-02 1.34074315e-02
      3.93302858e-01 7.48141436e-03 9.36442427e-03 5.07847732e-03
      3.24965082e-02 2.77223408e-01 1.14201650e-01 2.03062162e-01
      1.26349658e-01 3.93302858e-01 2.45910749e-01 2.68125117e-01
      5.97267896e-02 2.60227144e-01 1.39863044e-02 4.27533174e-03
      1.14899315e-02 1.31008858e-02 3.93302858e-01 5.75201400e-03
      5.87114738e-03 2.70940806e-03 1.40723810e-02 9.58520621e-02
      3.25896628e-02 2.89648026e-02 1.71733275e-02 3.93302858e-01
      4.45933044e-02 4.17931192e-02 1.06801633e-02 8.83866921e-02</_>
    <_>
      4.18097824e-01 2.32153647e-02 2.42602471e-02 2.29963497e-03
      2.01437976e-02 2.08222796e-03 7.20865186e-03 3.74446553e-03
      4.18097824e-01 4.18097824e-01 8.67563039e-02 1.38247222e-01
      5.40582128e-02 4.18097824e-01 1.36893719e-01 2.26786077e-01
      1.43011749e-01 4.18097824e-01 0. 0. 0. 0. 0. 0. 0. 0. 0.
      3.23331587e-05 0. 0. 0. 0. 0. 0. 0. 3.23331587e-05</_>
    <_>
      3.78423370e-02 1.15212575e-02 2.69997641e-02 2.26703957e-02
      3.35373849e-01 2.45247558e-02 3.23797800e-02 9.90771130e-03
      3.98868024e-02 3.35373849e-01 1.31718889e-01 3.35373849e-01
      6.77220225e-02 3.35373849e-01 8.62056464e-02 1.26154318e-01
      4.30924669e-02 3.35373849e-01 2.01939084e-02 2.42825435e-03
      7.01266620e-03 1.22208744e-02 3.35373849e-01 9.05930251e-03
      1.02022188e-02 2.14271992e-03 2.00027078e-02 2.59163439e-01
      4.76530455e-02 1.14215545e-01 2.37840600e-02 3.35373849e-01
      3.31131518e-02 6.19060099e-02 1.99938267e-02 2.57787704e-01</_>
    <_>
      3.21937770e-01 2.57727932e-02 5.04090227e-02 4.01601195e-03
      3.09086870e-02 1.94864476e-03 5.60687296e-03 3.53893638e-03
      3.21937770e-01 3.21937770e-01 1.89493611e-01 3.21937770e-01
      5.08602113e-02 1.42951608e-01 2.49818452e-02 3.01347449e-02
      2.38147229e-02 3.21937770e-01 4.18027863e-02 1.78269014e-01
      3.21937770e-01 4.14010398e-02 8.17714259e-02 2.04854868e-02
      2.32168417e-02 2.18085684e-02 3.47424038e-02 1.02128677e-01
      3.21937770e-01 3.21937770e-01 8.32527503e-02 1.72168240e-01
      3.28800678e-02 4.44943309e-02 3.68386023e-02 7.99224600e-02</_>
    <_>
      0. 0. 0. 0. 0. 0. 0. 0. 0. 3.75312686e-01 8.77613053e-02
      1.29195824e-01 1.35849044e-01 4.84661102e-01 1.72536999e-01
      4.84661102e-01 4.30328071e-01 3.55922401e-01 0. 0. 0. 0. 0. 0. 0.
      0. 0. 3.15174973e-03 7.79885508e-04 5.35758387e-04 4.08846448e-04
      1.13170070e-03 3.57077661e-04 2.17709597e-03 9.75016621e-04
      2.86939158e-03</_>
    <_>
      2.91163206e-01 5.31004854e-02 1.05517924e-01 7.02836737e-02
      2.91163206e-01 3.56110521e-02 5.82128502e-02 1.46278106e-02
      2.91163206e-01 2.91163206e-01 1.15926459e-01 2.10778549e-01
      1.56326100e-01 2.91163206e-01 7.26809576e-02 1.48351341e-01
      2.94212289e-02 2.91163206e-01 2.95469146e-02 5.80194220e-02
      1.66823551e-01 1.04508489e-01 2.91163206e-01 6.78106919e-02
      4.19761129e-02 1.19330799e-02 2.85936613e-02 2.83178091e-02
      9.47444364e-02 2.66073018e-01 1.78172186e-01 2.91163206e-01
      1.14140548e-01 8.84379745e-02 1.96443796e-02 2.81382352e-02</_>
    <_>
      4.57800553e-07 9.01252804e-07 2.87232774e-06 3.60690905e-07
      2.15081418e-05 6.83926658e-07 2.84902171e-06 8.40921643e-07
      4.57800553e-07 4.05113071e-01 2.07085311e-01 3.06692362e-01
      1.84673071e-01 4.29223031e-01 4.29223031e-01 3.39845926e-01
      8.24182108e-02 3.60657364e-01 1.22500680e-07 1.11747887e-07
      3.34391046e-07 0. 2.00024306e-06 1.08314175e-07 3.55551975e-07
      1.01212834e-07 1.22500680e-07 9.82228518e-02 4.54044938e-02
      2.43521444e-02 7.60809658e-03 1.32820785e-01 4.26176973e-02
      2.31640078e-02 8.77918210e-03 8.53758007e-02</_>
    <_>
      0. 0. 0. 0. 1.62201468e-05 0. 0. 0. 0. 3.88519228e-01
      2.11089984e-01 3.74155223e-01 2.19346568e-01 3.88519228e-01
      3.06629658e-01 3.88519228e-01 2.32527569e-01 3.83597821e-01 0. 0.
      0. 0. 0. 0. 0. 0. 0. 5.71815670e-02 1.58941653e-02 2.51441337e-02
      1.18934028e-02 5.02806045e-02 2.51192749e-02 6.04340807e-02
      2.41225157e-02 6.07091524e-02</_>
    <_>
      4.02279124e-02 9.45719611e-03 1.62449852e-02 2.65243910e-02
      3.55558604e-01 3.17612514e-02 3.08748614e-02 1.00612184e-02
      3.95958684e-02 3.55558604e-01 1.23767681e-01 2.66422868e-01
      1.06116459e-01 3.55558604e-01 1.01506732e-01 1.41176656e-01
      5.18350303e-02 3.55558604e-01 2.87284665e-02 5.13521722e-03
      3.58410971e-03 4.76135267e-03 1.43138245e-01 1.25197610e-02
      1.06336260e-02 3.54123139e-03 2.83471327e-02 3.06438565e-01
      6.99504167e-02 1.08544663e-01 2.45541949e-02 3.55558604e-01
      4.26012576e-02 6.80541396e-02 2.76524965e-02 2.94440091e-01</_>
    <_>
      1.84531271e-01 8.25023502e-02 2.04501659e-01 7.89606571e-02
      3.16891432e-01 5.41647747e-02 9.95073393e-02 4.54594828e-02
      1.79105982e-01 9.79072228e-02 7.24128485e-02 1.92580551e-01
      9.69298929e-02 3.16891432e-01 4.32882085e-02 6.92909211e-02
      3.08128633e-02 9.13872197e-02 2.08604038e-01 1.41704768e-01
      3.16891432e-01 6.59304261e-02 3.16891432e-01 4.25649583e-02
      4.06386741e-02 2.77715847e-02 1.94051132e-01 1.62674516e-01
      1.30275801e-01 3.10538709e-01 7.64828101e-02 3.16891432e-01
      3.88765521e-02 3.66335139e-02 2.24540699e-02 1.50465563e-01</_>
    <_>
      1.25490278e-01 3.09653040e-02 7.38016665e-02 6.56529814e-02
      3.24596256e-01 4.54037413e-02 3.13100107e-02 1.86009388e-02
      1.27737865e-01 3.24596256e-01 1.50293991e-01 3.24596256e-01
      1.31535605e-01 3.24596256e-01 1.00644499e-01 1.10226192e-01
      5.01793995e-02 3.24596256e-01 1.05420277e-01 1.61114633e-02
      2.51056068e-02 3.88410538e-02 3.24596256e-01 2.43573636e-02
      1.40340459e-02 1.06929122e-02 1.05507508e-01 2.23623797e-01
      6.35500774e-02 1.18299507e-01 4.29838635e-02 3.24596256e-01
      4.59550694e-02 3.55947986e-02 2.06171181e-02 2.21632913e-01</_>
    <_>
      2.75069058e-01 7.95485377e-02 1.72758400e-01 2.99009662e-02
      7.64377192e-02 1.64610967e-02 2.02852469e-02 1.90317556e-02
      2.75069058e-01 2.75069058e-01 2.75069058e-01 2.75069058e-01
      1.22255094e-01 2.09758848e-01 5.87150827e-02 5.72861843e-02
      6.07488975e-02 2.75069058e-01 7.86951482e-02 1.60660818e-01
      2.75069058e-01 7.97285885e-02 2.16952950e-01 4.67530340e-02
      7.54952058e-02 4.12034132e-02 5.95639609e-02 1.82723358e-01
      2.75069058e-01 2.75069058e-01 8.96757767e-02 2.02733904e-01
      4.87264208e-02 6.79434836e-02 4.92298268e-02 1.11619785e-01</_>
    <_>
      5.48176691e-02 1.59356222e-02 2.88716238e-02 1.27677992e-03
      3.69938493e-01 1.76799879e-03 2.45045554e-02 1.53066879e-02
      5.70696965e-02 2.57014662e-01 1.79893941e-01 1.92887872e-01
      1.03803769e-01 3.69938493e-01 3.34965885e-01 3.12099427e-01
      7.29652122e-02 2.20011130e-01 7.94651210e-02 1.46509008e-02
      2.31149364e-02 1.36413018e-03 3.69938493e-01 5.70252014e-04
      1.43639771e-02 1.27856657e-02 8.05456340e-02 8.83496180e-02
      2.19715033e-02 1.65203381e-02 1.11561373e-03 3.69938493e-01
      6.31560385e-03 2.38984581e-02 1.60115529e-02 8.72209072e-02</_>
    <_>
      7.57218748e-02 2.10819673e-02 4.40706052e-02 2.47392729e-02
      3.72523010e-01 1.76482257e-02 4.13356982e-02 2.32733563e-02
      7.33247772e-02 1.48634553e-01 8.79407078e-02 2.29324043e-01
      2.15888154e-02 3.72523010e-01 1.46837626e-02 2.54674852e-02
      1.92276556e-02 1.47045106e-01 8.58388692e-02 9.19108186e-03
      2.25146618e-02 2.34205872e-02 3.72523010e-01 1.61517430e-02
      1.75453536e-02 7.93197006e-03 8.43981057e-02 2.52973437e-01
      1.71356261e-01 3.72523010e-01 4.71487157e-02 3.72523010e-01
      3.90439965e-02 5.02749309e-02 3.73169333e-02 2.50427693e-01</_>
    <_>
      3.31528425e-01 1.40333492e-02 3.02190892e-02 1.75211634e-02
      3.31528425e-01 9.72410850e-03 1.04847364e-02 6.53035706e-03
      3.31528425e-01 3.31528425e-01 2.85173338e-02 4.44812477e-02
      1.90804824e-02 3.31528425e-01 4.50365394e-02 1.90888554e-01
      9.33431908e-02 3.31528425e-01 1.31151646e-01 6.16143411e-03
      2.48713568e-02 1.70271061e-02 3.31528425e-01 8.74597672e-03
      5.44163818e-03 3.80576844e-03 1.32312790e-01 1.17563903e-01
      4.45970381e-03 6.66178204e-03 9.34542995e-03 3.31528425e-01
      2.33989358e-02 3.29418071e-02 7.61022558e-03 1.18156858e-01</_>
    <_>
      1.97858531e-02 4.00830852e-03 1.46859512e-02 3.02911326e-02
      4.10512060e-01 2.13050060e-02 9.68409702e-03 3.89981130e-03
      2.05175038e-02 2.67574489e-01 9.13429335e-02 1.68659344e-01
      8.58870745e-02 4.10512060e-01 2.48670399e-01 1.80499151e-01
      4.29770239e-02 2.58242309e-01 4.14818898e-03 3.19791236e-03
      1.06732231e-02 2.64010541e-02 4.10512060e-01 1.41462078e-02
      6.22581085e-03 2.58013094e-03 3.53980181e-03 1.27900869e-01
      3.72739844e-02 2.47686617e-02 2.18683183e-02 4.10512060e-01
      6.13926649e-02 4.04988080e-02 1.24727674e-02 1.22791067e-01</_>
    <_>
      5.86522035e-02 1.35062663e-02 2.23473925e-02 2.13027429e-02
      3.59778255e-01 1.29277613e-02 2.95402315e-02 2.41312701e-02
      5.80785722e-02 2.02193767e-01 1.15554966e-01 2.80522674e-01
      3.17780934e-02 3.59778255e-01 3.07659898e-02 4.91775461e-02
      3.46956477e-02 1.99312553e-01 7.87346363e-02 9.06620733e-03
      1.50503926e-02 2.12391149e-02 3.59778255e-01 1.19497785e-02
      1.85372345e-02 9.82419215e-03 7.60645494e-02 2.99705923e-01
      1.28325000e-01 2.77259827e-01 3.71831134e-02 3.59778255e-01
      4.84536067e-02 6.78431839e-02 4.46300283e-02 2.89869308e-01</_>
    <_>
      1.66582540e-01 4.75246087e-02 8.07449520e-02 2.63009686e-02
      2.84919381e-01 3.02845892e-02 3.92151587e-02 1.98498927e-02
      1.60244659e-01 3.14144880e-01 2.33681798e-01 3.14144880e-01
      1.11360565e-01 3.14144880e-01 9.09166187e-02 1.83827609e-01
      7.59050921e-02 3.14144880e-01 7.62054548e-02 1.90072879e-02
      2.44043712e-02 8.54477938e-03 8.62859488e-02 1.35766240e-02
      1.71110481e-02 7.34613091e-03 7.37072825e-02 3.14144880e-01
      1.07011311e-01 1.82513714e-01 4.06590700e-02 2.65679091e-01
      3.94047201e-02 6.03292026e-02 2.33368501e-02 3.14144880e-01</_>
    <_>
      7.35254539e-03 2.88138026e-03 9.42967925e-03 2.11156756e-02
      4.30986553e-01 1.13861430e-02 1.60272084e-02 5.79361664e-03
      6.58306945e-03 1.74451154e-02 7.63095869e-03 1.67054106e-02
      6.64945971e-03 4.30986553e-01 5.45546645e-03 1.94284208e-02
      7.28522427e-03 1.58673655e-02 7.04442188e-02 2.52084830e-03
      8.60347133e-03 1.99180245e-02 4.30986553e-01 1.08418847e-02
      1.39024993e-02 5.09718666e-03 6.96243644e-02 3.35788131e-01
      4.46938314e-02 1.11916848e-01 1.82207655e-02 4.30986553e-01
      4.04992588e-02 5.18655963e-02 1.97758432e-02 3.27543765e-01</_>
    <_>
      1.83186665e-01 7.08561540e-02 1.71587497e-01 6.69028386e-02
      3.23064536e-01 4.81832847e-02 1.06591985e-01 4.92033288e-02
      1.83945432e-01 9.46325436e-02 6.43821582e-02 1.80260569e-01
      7.54632279e-02 3.23064536e-01 4.85008880e-02 7.05993995e-02
      3.16742100e-02 9.06130373e-02 2.02847943e-01 1.39735430e-01
      3.23064536e-01 5.92625514e-02 3.23064536e-01 4.49499413e-02
      4.63371277e-02 3.06339841e-02 1.91669300e-01 1.60790801e-01
      1.31086439e-01 3.23064536e-01 6.35485426e-02 3.23064536e-01
      4.69833799e-02 3.53491232e-02 2.30878852e-02 1.52241170e-01</_>
    <_>
      1.26517445e-01 4.44730893e-02 7.21269697e-02 2.36687567e-02
      3.31353664e-01 2.66579576e-02 2.67987791e-02 1.73709132e-02
      1.22690819e-01 3.31353664e-01 2.75584519e-01 3.31353664e-01
      1.31538019e-01 3.31353664e-01 9.19715464e-02 1.24309041e-01
      7.23927468e-02 3.31353664e-01 5.08335456e-02 1.53140193e-02
      1.37311025e-02 5.26508410e-03 9.66490880e-02 8.98804236e-03
      1.04298126e-02 5.81567734e-03 4.83877398e-02 2.70366967e-01
      1.10714026e-01 1.59364849e-01 3.08004972e-02 2.98736274e-01
      2.97297705e-02 3.75683717e-02 2.34237928e-02 2.57004529e-01</_>
    <_>
      3.06454778e-01 1.34625193e-02 3.75875980e-02 6.12966390e-03
      8.74281824e-02 3.47433984e-03 3.97311244e-03 2.15447019e-03
      3.06454778e-01 3.06454778e-01 1.40606388e-01 3.04898679e-01
      6.77552596e-02 3.06454778e-01 5.82295805e-02 3.58173698e-02
      2.22829785e-02 3.06454778e-01 2.08407063e-02 1.16501734e-01
      3.06454778e-01 1.34933349e-02 3.69783342e-02 9.41537600e-03
      1.08632771e-02 1.08545218e-02 1.84760038e-02 6.49875030e-02
      2.87122697e-01 3.06454778e-01 5.86089492e-02 3.05738866e-01
      4.91269752e-02 3.78388055e-02 3.07867974e-02 5.60765527e-02</_>
    <_>
      1.55164525e-01 3.12776342e-02 4.72904854e-02 2.37648748e-02
      3.04432869e-01 1.39819309e-02 3.16046327e-02 1.60711277e-02
      1.54283047e-01 3.04432869e-01 1.97007060e-01 3.04432869e-01
      1.14060894e-01 3.04432869e-01 4.76807691e-02 1.04083270e-01
      4.81521077e-02 3.04432869e-01 1.01937577e-01 1.73041839e-02
      1.99455805e-02 7.77743664e-03 2.48778030e-01 4.69557662e-03
      1.47589128e-02 6.39871182e-03 1.00472055e-01 3.04432869e-01
      1.12046212e-01 1.86603501e-01 3.59069109e-02 3.04432869e-01
      1.57061871e-02 4.81801070e-02 2.27405876e-02 3.04432869e-01</_>
    <_>
      3.67181003e-02 1.27791958e-02 2.72188298e-02 2.52329558e-02
      4.22204465e-01 1.84843093e-02 1.98279805e-02 9.82490554e-03
      3.75592709e-02 2.76949435e-01 7.85906836e-02 1.72427550e-01
      4.72685248e-02 4.22204465e-01 6.40648380e-02 1.39294982e-01
      5.22392318e-02 2.80899256e-01 5.21293608e-03 3.97296669e-03
      1.38179995e-02 1.65811274e-02 4.22204465e-01 1.07957879e-02
      6.48501469e-03 2.96628219e-03 5.35399234e-03 1.60682574e-01
      1.65613350e-02 2.86320988e-02 1.69432815e-02 4.22204465e-01
      2.80110966e-02 4.79489937e-02 1.57929007e-02 1.62490025e-01</_>
    <_>
      9.55798328e-02 1.29043553e-02 2.86158845e-02 6.75459281e-02
      4.50209230e-01 4.20933403e-02 2.14154888e-02 1.56964306e-02
      9.82361808e-02 1.65171087e-01 4.07834277e-02 7.82238021e-02
      5.51842712e-02 4.50209230e-01 9.30363759e-02 1.12362877e-01
      2.44803112e-02 1.54164478e-01 1.20161273e-01 1.29887452e-02
      2.71511506e-02 6.31742477e-02 4.50209230e-01 3.81299406e-02
      1.92401651e-02 1.15427384e-02 1.22625396e-01 1.26121387e-01
      1.22979935e-02 1.78616922e-02 3.48383747e-02 4.50209230e-01
      5.67148700e-02 2.86298133e-02 1.24032917e-02 1.26776546e-01</_>
    <_>
      2.83248752e-01 1.11040354e-01 2.43414193e-01 8.44778642e-02
      2.83248752e-01 3.85021232e-02 1.33159131e-01 5.17538674e-02
      2.83248752e-01 2.83248752e-01 1.18334323e-01 2.34420463e-01
      8.50922763e-02 2.83248752e-01 4.05562483e-02 1.29195452e-01
      5.06041758e-02 2.83248752e-01 1.46600530e-01 1.10564440e-01
      2.07236126e-01 6.01276420e-02 2.83248752e-01 1.66836288e-02
      2.60059126e-02 1.48331784e-02 1.38317168e-01 1.16735443e-01
      1.03629984e-01 1.87369838e-01 5.03513068e-02 2.51219749e-01
      1.43452985e-02 2.02104878e-02 1.12682991e-02 1.06823809e-01</_>
    <_>
      6.00823164e-02 1.43252304e-02 2.72571687e-02 3.86839807e-02
      4.33148444e-01 2.16385312e-02 1.86369102e-02 1.19156968e-02
      5.75073250e-02 2.44605601e-01 7.06137493e-02 1.37176692e-01
      7.01395720e-02 4.33148444e-01 1.44442484e-01 2.14343369e-01
      3.72820236e-02 2.16742650e-01 6.42989129e-02 1.21740745e-02
      2.49922127e-02 2.98166666e-02 4.33148444e-01 1.79519579e-02
      1.65475551e-02 1.24774287e-02 6.50610998e-02 9.44503620e-02
      1.44176921e-02 1.92102622e-02 1.78228356e-02 4.33148444e-01
      3.74722444e-02 3.41651812e-02 1.32194553e-02 8.83855969e-02</_>
    <_>
      2.57153004e-01 1.14686951e-01 2.57153004e-01 5.39912768e-02
      2.57153004e-01 2.27703564e-02 5.03343306e-02 3.19694132e-02
      2.57153004e-01 2.31100678e-01 1.59389526e-01 2.57153004e-01
      5.69185168e-02 2.57153004e-01 2.47035045e-02 5.75889759e-02
      3.38766128e-02 2.18236968e-01 2.57153004e-01 7.39218444e-02
      1.59789845e-01 2.56624725e-02 2.57153004e-01 1.34107675e-02
      3.00977267e-02 2.06792373e-02 2.57153004e-01 2.27406159e-01
      9.66543555e-02 1.99494407e-01 2.84436215e-02 2.57153004e-01
      1.40256518e-02 2.29131579e-02 1.89997666e-02 2.12937981e-01</_>
    <_>
      3.07925850e-01 1.34865707e-02 2.71757618e-02 1.37078548e-02
      3.14579546e-01 1.02223828e-02 1.79277007e-02 9.95129533e-03
      3.03204894e-01 2.59510815e-01 8.65453482e-03 1.81784667e-02
      9.86695103e-03 3.14579546e-01 1.22542372e-02 2.47143097e-02
      1.09085171e-02 2.58168340e-01 2.82926351e-01 9.26232710e-03
      1.92430913e-02 1.08756116e-02 3.14579546e-01 9.65536479e-03
      2.19291132e-02 1.21957390e-02 2.84780800e-01 2.38627970e-01
      7.37182191e-03 1.27720134e-02 8.15729145e-03 3.14579546e-01
      1.10119339e-02 1.79734938e-02 9.98737477e-03 2.38820538e-01</_>
    <_>
      2.80723572e-01 8.56118947e-02 2.14386880e-01 6.28664047e-02
      2.80723572e-01 4.16349769e-02 1.50447309e-01 5.72794229e-02
      2.80723572e-01 2.80723572e-01 9.11322013e-02 2.23955408e-01
      6.88674152e-02 2.80723572e-01 4.40736413e-02 1.76062509e-01
      6.90494552e-02 2.80723572e-01 1.55522987e-01 8.79536867e-02
      2.13674560e-01 5.11967577e-02 2.80723572e-01 2.55912431e-02
      2.95123700e-02 1.48872016e-02 1.46059155e-01 1.29301772e-01
      8.41131508e-02 1.92659438e-01 3.85240130e-02 2.80723572e-01
      1.98946614e-02 2.31896490e-02 1.10736154e-02 1.19208828e-01</_>
    <_>
      2.65686382e-02 1.04125375e-02 1.30799403e-02 1.91776045e-02
      2.62059510e-01 2.78080683e-02 3.47127132e-02 1.06338663e-02
      2.26951987e-02 3.83150041e-01 2.34058738e-01 3.82439882e-01
      1.55951098e-01 3.83150041e-01 1.82615414e-01 2.72408664e-01
      8.79211649e-02 3.83150041e-01 7.58019276e-03 2.66323495e-03
      1.88653474e-03 1.78074476e-03 4.15517390e-02 6.13060640e-03
      7.10064825e-03 1.59167685e-03 6.82999566e-03 1.73780948e-01
      6.70626014e-02 7.54932389e-02 1.90042444e-02 2.63268024e-01
      4.03707922e-02 6.23987727e-02 1.69826616e-02 1.57039851e-01</_>
    <_>
      1.15018070e-01 3.47693339e-02 6.78766593e-02 5.91394417e-02
      3.23927313e-01 4.18475494e-02 3.85325439e-02 2.00484842e-02
      1.15399286e-01 3.23927313e-01 1.77486286e-01 3.23927313e-01
      1.92461252e-01 3.23927313e-01 1.09426618e-01 1.33948594e-01
      6.58142567e-02 3.23927313e-01 8.36338103e-02 1.36688501e-02
      2.05458067e-02 2.44743619e-02 3.23927313e-01 1.95341222e-02
      1.45347752e-02 9.37368907e-03 8.63165632e-02 2.03663364e-01
      6.60575479e-02 1.07207976e-01 4.33881767e-02 3.23927313e-01
      3.92411575e-02 3.62774059e-02 1.98953450e-02 2.02900112e-01</_>
    <_>
      2.57627010e-01 9.63624343e-02 2.36208811e-01 2.94400379e-02
      2.51952410e-01 1.55231301e-02 2.70084366e-02 1.45351328e-02
      2.57627010e-01 2.41799369e-01 2.35232085e-01 2.57627010e-01
      9.67204347e-02 2.57627010e-01 3.20239738e-02 3.61174159e-02
      1.96233988e-02 2.12277889e-01 1.54292211e-01 1.07956156e-01
      2.39234775e-01 3.16726118e-02 2.57627010e-01 1.94195360e-02
      5.51480614e-02 3.08505520e-02 1.48511037e-01 1.84590191e-01
      2.18160182e-01 2.57627010e-01 3.90136354e-02 2.57627010e-01
      2.59616300e-02 5.71772456e-02 3.06899343e-02 1.51936293e-01</_>
    <_>
      2.60688782e-01 9.34486743e-03 2.07413584e-02 3.93149406e-02
      3.63987982e-01 2.96816230e-02 1.48509583e-02 8.07218160e-03
      2.62781650e-01 2.23765448e-01 9.72009730e-03 1.74397975e-02
      3.01781334e-02 3.63987982e-01 3.90796065e-02 2.42281500e-02
      1.07909637e-02 2.20970973e-01 2.50799656e-01 8.71884730e-03
      1.86919849e-02 3.89780626e-02 3.63987982e-01 2.78389696e-02
      1.48804011e-02 8.71390104e-03 2.52029538e-01 2.13704646e-01
      7.48057431e-03 1.32387336e-02 2.57212184e-02 3.63987982e-01
      3.27682756e-02 1.90738160e-02 8.22086353e-03 2.15008199e-01</_>
    <_>
      2.52733707e-01 8.77320021e-02 2.36561283e-01 8.10602605e-02
      2.72699922e-01 2.93091498e-02 3.80157009e-02 2.53393818e-02
      2.43962586e-01 1.57647431e-01 1.16431043e-01 2.72699922e-01
      1.14159726e-01 2.72699922e-01 3.18771452e-02 3.25805284e-02
      2.05061790e-02 1.44834369e-01 2.72176862e-01 7.51227289e-02
      1.85739219e-01 4.06489670e-02 2.72699922e-01 1.43078808e-02
      3.06327716e-02 1.98348165e-02 2.64958888e-01 2.21112281e-01
      9.75782126e-02 2.45676100e-01 4.97623459e-02 2.72699922e-01
      1.62435099e-02 2.22604703e-02 1.54751278e-02 2.10014299e-01</_>
    <_>
      3.63598019e-01 2.32282802e-02 2.56299507e-02 1.20618297e-02
      9.57972109e-02 3.37031558e-02 5.31537905e-02 1.96752865e-02
      3.63598019e-01 3.63598019e-01 1.68907762e-01 2.47385666e-01
      7.09225163e-02 3.63598019e-01 2.40780950e-01 3.63598019e-01
      1.76041186e-01 3.63598019e-01 9.98847419e-04 1.79862342e-04
      2.76006933e-04 3.46262823e-04 2.08858121e-03 1.10863382e-03
      1.39472750e-03 5.80528926e-04 1.05268462e-03 3.44872400e-02
      1.38337696e-02 1.94587056e-02 4.32234118e-03 2.23683175e-02
      1.27951177e-02 2.64243633e-02 1.33786155e-02 3.49826105e-02</_>
    <_>
      4.70085353e-01 2.14902107e-02 2.52323505e-02 1.97385135e-03
      2.88848337e-02 1.46101369e-03 5.34883514e-03 3.89991398e-03
      4.70085353e-01 4.70085353e-01 2.51540784e-02 2.88165510e-02
      1.84750631e-02 1.69055820e-01 3.74758504e-02 2.65837520e-01
      8.33228156e-02 4.70085353e-01 0. 0. 0. 0. 0. 0. 0. 0. 0. 0. 0. 0.
      0. 0. 0. 0. 0. 0.</_>
    <_>
      1.79022476e-02 6.18852954e-03 2.06200071e-02 3.04343384e-02
      4.15101141e-01 3.02668642e-02 1.74544062e-02 4.53231763e-03
      1.79222226e-02 2.46853501e-01 6.03553802e-02 1.23774469e-01
      1.19210050e-01 4.15101141e-01 1.55137599e-01 1.43815234e-01
      4.22548018e-02 2.40523458e-01 8.68571457e-03 3.64405429e-03
      8.77439603e-03 1.35280639e-02 3.74560475e-01 1.32061420e-02
      6.75662374e-03 1.65568455e-03 8.79341643e-03 2.50558466e-01
      5.19907847e-02 5.20255528e-02 3.29997353e-02 4.15101141e-01
      6.70493320e-02 5.65541983e-02 1.96870174e-02 2.42592975e-01</_>
    <_>
      2.12341458e-01 4.84512560e-02 1.11535989e-01 7.70068541e-02
      3.01407307e-01 3.54149714e-02 2.91438177e-02 1.96171626e-02
      1.94212556e-01 2.37121448e-01 1.07538112e-01 2.42363647e-01
      1.08171776e-01 3.01407307e-01 5.92042245e-02 6.78073466e-02
      3.50939035e-02 2.05200732e-01 1.23010598e-01 8.54453817e-02
      1.96099445e-01 5.96504323e-02 3.01407307e-01 3.52840610e-02
      2.76841540e-02 2.02131327e-02 1.27307445e-01 2.42888823e-01
      1.98122516e-01 3.01407307e-01 1.08282007e-01 3.01407307e-01
      6.34494424e-02 5.00492491e-02 3.08184475e-02 2.15737402e-01</_>
    <_>
      2.00381130e-01 7.28580877e-02 1.64612249e-01 9.11022201e-02
      2.78276145e-01 3.49136591e-02 3.01210899e-02 2.10600030e-02
      1.89321667e-01 2.67119467e-01 1.28947631e-01 2.78276145e-01
      1.26672804e-01 2.78276145e-01 4.55057174e-02 3.98838222e-02
      2.86068767e-02 2.53076285e-01 1.36323750e-01 7.34607726e-02
      1.32050589e-01 5.26044555e-02 2.78276145e-01 2.44102348e-02
      2.47756019e-02 2.09526308e-02 1.35533094e-01 2.74473935e-01
      1.37451068e-01 2.78276145e-01 8.94003510e-02 2.78276145e-01
      3.36408317e-02 3.20908986e-02 3.28417979e-02 2.66655564e-01</_>
    <_>
      2.92402953e-01 5.82702495e-02 1.32621884e-01 6.13441430e-02
      2.92402953e-01 2.33765319e-02 6.82976469e-02 3.63865755e-02
      2.92402953e-01 2.92402953e-01 9.06577706e-02 2.05203816e-01
      8.70340839e-02 2.92402953e-01 2.90660784e-02 1.49541616e-01
      6.87826127e-02 2.92402953e-01 2.34383568e-01 1.65150929e-02
      3.30443159e-02 1.56591441e-02 2.92402953e-01 7.94393104e-03
      1.36159901e-02 1.14132892e-02 2.34028250e-01 2.03627437e-01
      2.44529713e-02 4.41938527e-02 2.05534603e-02 2.92402953e-01
      6.54320093e-03 1.29319374e-02 1.15245776e-02 1.98709190e-01</_>
    <_>
      1.73204523e-02 6.26062509e-03 1.98634844e-02 3.50427069e-02
      4.16071802e-01 3.46055366e-02 1.73902381e-02 4.65643173e-03
      1.71135459e-02 2.35818520e-01 7.57906064e-02 1.53971151e-01
      1.53960377e-01 4.16071802e-01 1.94462687e-01 1.44998029e-01
      4.69031222e-02 2.26799846e-01 5.54042263e-03 3.52879032e-03
      9.37432237e-03 1.53785869e-02 4.13041800e-01 1.45010613e-02
      7.20535778e-03 2.07078131e-03 5.77680068e-03 1.85747042e-01
      4.91504297e-02 5.75932376e-02 3.04894857e-02 4.16071802e-01
      7.23414794e-02 4.45462652e-02 1.72265545e-02 1.77557454e-01</_>
    <_>
      2.76797861e-01 3.33852433e-02 1.04260594e-01 5.26906624e-02
      2.76797861e-01 2.50122473e-02 9.30818915e-03 8.82397499e-03
      2.76797861e-01 2.46187285e-01 5.39527126e-02 1.93615749e-01
      1.38236746e-01 2.76797861e-01 6.05873950e-02 1.62554737e-02
      1.80619732e-02 2.42618427e-01 1.10278614e-01 1.80180997e-01
      2.76797861e-01 6.62651509e-02 2.76797861e-01 2.79011540e-02
      2.91062463e-02 1.90236364e-02 9.58045274e-02 1.58335686e-01
      2.55531251e-01 2.76797861e-01 1.21239953e-01 2.76797861e-01
      4.61778976e-02 3.24232914e-02 2.83595938e-02 1.27547488e-01</_>
    <_>
      2.82496542e-01 8.54884461e-02 1.40978649e-01 3.99017110e-02
      2.82496542e-01 1.52129345e-02 5.18323965e-02 2.45758053e-02
      2.82496542e-01 2.82496542e-01 1.65285781e-01 2.65682161e-01
      5.69225401e-02 2.82496542e-01 2.63044462e-02 1.10858046e-01
      4.76952530e-02 2.82496542e-01 2.36944869e-01 1.98125932e-02
      3.06983087e-02 8.03756528e-03 2.82496542e-01 5.09284157e-03
      1.04105035e-02 5.29589551e-03 2.35153228e-01 2.18250975e-01
      3.66590694e-02 5.36843725e-02 8.75328202e-03 2.82496542e-01
      4.67207283e-03 1.07507706e-02 5.55640878e-03 2.11981833e-01</_>
    <_>
      3.32881734e-02 1.29180811e-02 2.05373224e-02 1.65238474e-02
      2.97257721e-01 3.60643119e-02 3.06661017e-02 7.66285881e-03
      3.29953879e-02 3.73789251e-01 2.79572189e-01 3.73789251e-01
      1.59770846e-01 3.73789251e-01 1.75237224e-01 1.89282984e-01
      7.08093941e-02 3.73789251e-01 1.18309427e-02 2.62978184e-03
      1.33148732e-03 2.08632834e-03 4.98823337e-02 8.75712000e-03
      6.43584738e-03 1.04534754e-03 1.15841487e-02 2.15533972e-01
      8.16633776e-02 8.52482468e-02 1.98570509e-02 2.41864413e-01
      4.26872596e-02 4.45764475e-02 1.58758741e-02 2.05413073e-01</_>
    <_>
      2.53501087e-01 8.20335969e-02 2.09206447e-01 5.44043779e-02
      2.53501087e-01 1.24902464e-02 2.41972525e-02 1.66587457e-02
      2.53501087e-01 2.53501087e-01 1.70916721e-01 2.53501087e-01
      7.49643147e-02 2.53501087e-01 2.34280955e-02 2.71199476e-02
      1.73552316e-02 2.34276816e-01 1.99703023e-01 9.29482207e-02
      2.27264866e-01 5.80233335e-02 2.53501087e-01 1.71994548e-02
      5.08784130e-02 3.20621729e-02 2.01798469e-01 2.16114953e-01
      1.84360981e-01 2.53501087e-01 6.11862652e-02 2.53501087e-01
      2.71595325e-02 5.14252335e-02 3.07510514e-02 1.90747038e-01</_>
    <_>
      2.55594999e-01 2.68131401e-02 5.93514182e-02 3.89254987e-02
      2.99837321e-01 2.22274475e-02 9.68800113e-03 7.61479093e-03
      2.39236012e-01 2.99837321e-01 1.01676434e-01 2.38019466e-01
      1.70341656e-01 2.99837321e-01 4.32753079e-02 2.56685466e-02
      2.03954317e-02 2.83483922e-01 7.46959373e-02 9.55946743e-02
      2.18431011e-01 5.91912121e-02 2.99837321e-01 2.43554767e-02
      2.02078354e-02 1.48944389e-02 6.97603077e-02 1.23960488e-01
      2.78289467e-01 2.99837321e-01 1.66244090e-01 1.87672138e-01
      2.78399214e-02 3.58032174e-02 2.68045999e-02 9.34895724e-02</_>
    <_>
      1.06987938e-01 2.55509187e-02 2.81754322e-02 2.69993842e-02
      3.18663955e-01 4.19517457e-02 3.19840424e-02 2.19194945e-02
      9.93378907e-02 3.18663955e-01 2.29652330e-01 3.18663955e-01
      1.38671383e-01 3.18663955e-01 1.16895646e-01 1.41692966e-01
      7.91630894e-02 3.18663955e-01 5.37307151e-02 8.28797743e-03
      9.64483805e-03 9.12602525e-03 1.11444890e-01 1.43713253e-02
      1.51831135e-02 8.01357627e-03 5.13816588e-02 3.18663955e-01
      1.05821162e-01 1.64945737e-01 4.24207039e-02 2.97994941e-01
      4.12533283e-02 6.50343597e-02 3.47645432e-02 3.06536853e-01</_>
    <_>
      3.82333547e-01 1.47735057e-02 3.10501419e-02 1.29660377e-02
      2.29374662e-01 6.53757947e-03 6.74785487e-03 5.09271026e-03
      3.82333547e-01 3.82333547e-01 1.72537472e-02 3.09179928e-02
      1.54765099e-02 3.82333547e-01 3.24115753e-02 1.06038012e-01
      3.52786444e-02 3.82333547e-01 2.15211115e-03 2.27392768e-03
      1.41724674e-02 1.08716870e-02 2.20856041e-01 5.35878260e-03
      1.26660266e-03 8.72668868e-04 1.81569392e-03 2.01112148e-03
      9.21267900e-04 1.57015456e-03 7.08956877e-03 3.82333547e-01
      1.67191382e-02 2.23683380e-02 3.52427363e-03 2.54355185e-03</_>
    <_>
      2.60093689e-01 8.67642686e-02 2.17955127e-01 2.26872284e-02
      2.60093689e-01 2.05703061e-02 2.00501140e-02 1.41615700e-02
      2.60093689e-01 1.88278869e-01 1.34433270e-01 2.60093689e-01
      2.92718560e-02 2.58589834e-01 2.20326521e-02 2.26848219e-02
      1.54630309e-02 1.82875708e-01 2.31091753e-01 1.19535111e-01
      2.60093689e-01 2.89446823e-02 2.60093689e-01 2.47062687e-02
      5.52713536e-02 2.91100182e-02 2.23341256e-01 2.12247208e-01
      1.72540471e-01 2.60093689e-01 3.05987075e-02 2.60093689e-01
      2.48834006e-02 5.22195399e-02 2.85583176e-02 2.02157512e-01</_>
    <_>
      1.98658615e-01 6.25115335e-02 1.66755840e-01 7.62077570e-02
      3.04338932e-01 2.05943435e-02 2.16038469e-02 1.51965600e-02
      1.80893019e-01 2.48410627e-01 1.26752749e-01 3.04338932e-01
      1.01748280e-01 3.04338932e-01 3.35686542e-02 3.73942554e-02
      2.01105811e-02 2.32383981e-01 1.10135198e-01 6.13761917e-02
      1.71491832e-01 4.89101298e-02 3.04338932e-01 1.25998696e-02
      1.21920370e-02 9.79989208e-03 1.06410339e-01 2.30352253e-01
      1.52819261e-01 3.04338932e-01 7.66078979e-02 3.04338932e-01
      3.06206103e-02 3.27195786e-02 1.68244839e-02 2.03307495e-01</_>
    <_>
      2.95397043e-01 7.32112117e-03 2.43063178e-02 1.16052227e-02
      2.95397043e-01 9.70054138e-03 1.61744338e-02 6.40175585e-03
      2.95397043e-01 2.93323070e-01 5.74597949e-03 1.54640330e-02
      6.09461218e-03 2.95397043e-01 6.54798979e-03 2.23966725e-02
      7.15494854e-03 2.94589341e-01 2.95397043e-01 5.29605104e-03
      1.64797585e-02 8.13413598e-03 2.95397043e-01 7.67746614e-03
      1.60897467e-02 6.06191065e-03 2.95397043e-01 2.47916549e-01
      4.57770284e-03 1.10893771e-02 5.10591408e-03 2.95397043e-01
      5.81614533e-03 1.72178522e-02 5.49826631e-03 2.47704029e-01</_>
    <_>
      3.28089327e-01 1.08760251e-02 3.03970855e-02 1.37199080e-02
      3.28089327e-01 9.71774850e-03 6.17020810e-03 2.96627427e-03
      3.28089327e-01 3.28089327e-01 1.31250974e-02 2.79091485e-02
      1.51125025e-02 3.28089327e-01 1.99163146e-02 7.05672130e-02
      3.04358397e-02 3.28089327e-01 1.88954979e-01 7.41940504e-03
      2.19603889e-02 9.58899502e-03 3.28089327e-01 7.32049253e-03
      7.90946279e-03 3.46919452e-03 1.89163417e-01 1.62909493e-01
      3.61817866e-03 6.36713626e-03 9.26041324e-03 3.28089327e-01
      1.11345621e-02 3.17223370e-02 1.11886170e-02 1.62935913e-01</_>
    <_>
      8.60219672e-02 2.09797453e-02 5.02249300e-02 1.81608051e-02
      3.45053941e-01 1.45612583e-02 5.08436635e-02 2.94503197e-02
      8.97048861e-02 1.81352571e-01 1.15199246e-01 2.92570651e-01
      2.84859873e-02 3.45053941e-01 2.05510296e-02 3.52252200e-02
      2.54301317e-02 1.77984312e-01 8.13379064e-02 8.05597939e-03
      2.17536986e-02 1.82287246e-02 3.45053941e-01 1.09815365e-02
      1.31744407e-02 6.80103106e-03 8.28490481e-02 2.79860854e-01
      1.82601854e-01 3.45053941e-01 5.06178699e-02 3.45053941e-01
      3.61299403e-02 6.43788353e-02 4.29889262e-02 2.75797576e-01</_>
    <_>
      2.91890830e-01 6.44349493e-03 2.62446776e-02 2.61637717e-02
      2.91890830e-01 1.96840726e-02 1.61172394e-02 5.61027462e-03
      2.91890830e-01 2.84292012e-01 6.01026788e-03 1.62101649e-02
      1.65467840e-02 2.91890830e-01 1.85267515e-02 2.80877780e-02
      1.09406030e-02 2.88476199e-01 2.91890830e-01 4.44659963e-03
      1.81290768e-02 1.76071487e-02 2.91890830e-01 1.63804423e-02
      1.79155413e-02 5.43138431e-03 2.91890830e-01 2.70472407e-01
      3.62690422e-03 1.34041915e-02 1.29035944e-02 2.91890830e-01
      1.42551633e-02 1.85374673e-02 4.54509351e-03 2.68632114e-01</_>
    <_>
      2.86565870e-01 7.94244781e-02 1.93119615e-01 1.12822903e-02
      6.92138895e-02 1.48510989e-02 6.89466670e-03 5.84887946e-03
      2.86565870e-01 2.86565870e-01 2.85586715e-01 2.86565870e-01
      5.01275547e-02 1.84909001e-01 5.75749129e-02 2.50859503e-02
      2.33753175e-02 2.86565870e-01 3.14006917e-02 2.03604445e-01
      2.86565870e-01 3.76237147e-02 2.70211309e-01 3.58624831e-02
      2.25715041e-02 1.86047312e-02 2.67556440e-02 7.41672963e-02
      2.82302111e-01 2.86565870e-01 4.58246171e-02 1.93961620e-01
      4.29393984e-02 2.29639076e-02 2.09057014e-02 5.71463443e-02</_>
    <_>
      2.92215675e-01 6.46743551e-03 1.03855729e-02 1.09442007e-02
      2.92215675e-01 1.16897868e-02 1.50708118e-02 6.37434842e-03
      2.92215675e-01 2.87803590e-01 7.19723711e-03 1.23902000e-02
      1.03122182e-02 2.92215675e-01 1.39648253e-02 2.88344901e-02
      1.16245672e-02 2.89360464e-01 2.92215675e-01 4.66216821e-03
      8.67011026e-03 8.14879034e-03 2.92215675e-01 9.90323722e-03
      1.36042433e-02 6.78203069e-03 2.92215675e-01 2.68640608e-01
      4.92972787e-03 9.29820258e-03 8.71728454e-03 2.92215675e-01
      1.01459939e-02 1.35989739e-02 5.77680580e-03 2.68485039e-01</_>
    <_>
      2.77891848e-02 8.51235818e-03 1.87970996e-02 3.06615122e-02
      3.83020490e-01 1.96751058e-02 1.50747877e-02 7.74528226e-03
      2.73358822e-02 2.79195219e-01 1.78777292e-01 2.17457920e-01
      1.48321182e-01 3.83020490e-01 2.97398716e-01 2.39665240e-01
      6.27186671e-02 2.37563863e-01 4.04804498e-02 7.73421954e-03
      1.76373646e-02 3.27128358e-02 3.83020490e-01 2.14057118e-02
      1.44935464e-02 7.78379245e-03 4.02920246e-02 7.26956055e-02
      3.00041139e-02 2.18311604e-02 2.08779518e-02 3.83020490e-01
      4.79569621e-02 3.30964476e-02 1.32280644e-02 6.51254803e-02</_>
    <_>
      2.68157631e-01 8.22044834e-02 2.06517667e-01 2.54146177e-02
      2.68157631e-01 2.09325515e-02 1.11788940e-02 7.81749655e-03
      2.68157631e-01 2.42766634e-01 1.86967552e-01 2.68157631e-01
      8.81507024e-02 2.68157631e-01 4.58545759e-02 2.34451275e-02
      1.58937816e-02 2.34729201e-01 1.06701881e-01 1.45306557e-01
      2.68157631e-01 3.63170691e-02 2.68157631e-01 2.49175876e-02
      5.17400242e-02 2.77880412e-02 9.81185883e-02 1.19048618e-01
      2.45697066e-01 2.68157631e-01 4.36730981e-02 2.68157631e-01
      3.06985844e-02 4.88869809e-02 3.08240764e-02 1.07496977e-01</_>
    <_>
      2.61405140e-01 1.31367948e-02 2.97354050e-02 3.79375219e-02
      3.61537218e-01 3.07133179e-02 1.82681866e-02 9.67580918e-03
      2.61396527e-01 2.25531563e-01 1.25502143e-02 2.23108958e-02
      2.58592162e-02 3.61537218e-01 3.70844528e-02 3.26441340e-02
      1.35873398e-02 2.23326087e-01 2.52828181e-01 1.02598127e-02
      2.39280052e-02 3.82336937e-02 3.61537218e-01 2.67545078e-02
      1.95020307e-02 1.07965721e-02 2.53214538e-01 2.15285480e-01
      8.10158905e-03 1.56093044e-02 2.78096944e-02 3.61537218e-01
      3.74417938e-02 2.48213410e-02 1.11129936e-02 2.17649519e-01</_>
    <_>
      2.58831382e-01 1.99415144e-02 3.52944136e-02 4.53773215e-02
      3.54508847e-01 3.95107940e-02 2.85970587e-02 1.06940260e-02
      2.58204311e-01 2.28152364e-01 1.83702167e-02 3.12474985e-02
      3.49138603e-02 3.54508847e-01 4.41650823e-02 4.17772084e-02
      1.78668760e-02 2.26805151e-01 2.55918831e-01 2.00145897e-02
      3.03564761e-02 4.98425588e-02 3.54508847e-01 4.18753587e-02
      2.99917106e-02 1.20948181e-02 2.59543121e-01 2.20275879e-01
      1.24079930e-02 2.40346752e-02 3.62986811e-02 3.54508847e-01
      4.48149219e-02 3.01116984e-02 1.39790876e-02 2.25182384e-01</_>
    <_>
      2.68539399e-01 9.18668434e-02 2.41272986e-01 3.27262916e-02
      1.49123311e-01 2.17329729e-02 3.29166315e-02 2.08380707e-02
      2.68539399e-01 2.68539399e-01 2.68539399e-01 2.68539399e-01
      8.30538496e-02 2.68539399e-01 5.67032136e-02 5.28989509e-02
      4.91468161e-02 2.68539399e-01 6.28655404e-02 7.23643526e-02
      1.78626433e-01 3.82612459e-02 1.56434163e-01 3.19990218e-02
      1.06861442e-01 5.77909946e-02 7.75419772e-02 2.25818738e-01
      2.08282307e-01 2.68539399e-01 5.73140867e-02 2.00178415e-01
      4.03298587e-02 1.34120151e-01 9.74164605e-02 2.39722580e-01</_>
    <_>
      5.31155663e-03 2.42816005e-03 1.66486204e-02 1.13350917e-02
      1.89460874e-01 3.15745287e-02 1.44978529e-02 2.22863280e-03
      5.32682892e-03 3.41036707e-01 8.14391896e-02 1.76611289e-01
      1.18203588e-01 4.40199614e-01 2.57702112e-01 1.96947157e-01
      5.08964993e-02 3.28825504e-01 4.15344257e-03 1.25323329e-03
      1.49880268e-03 1.80585729e-03 4.76773344e-02 9.03074909e-03
      4.82583093e-03 9.86665138e-04 4.21565538e-03 2.95013785e-01
      6.28794581e-02 4.34952155e-02 2.49302369e-02 4.40199614e-01
      8.13395455e-02 6.04811534e-02 1.91008132e-02 2.82662898e-01</_>
    <_>
      2.41084129e-01 7.67104328e-02 2.02647001e-01 3.39574702e-02
      2.86315501e-01 2.84854658e-02 3.18437070e-02 1.71964839e-02
      2.38538206e-01 1.76700950e-01 8.38248283e-02 2.34629303e-01
      3.56015787e-02 2.86315501e-01 2.51019895e-02 2.90829763e-02
      1.49261728e-02 1.73247665e-01 2.86315501e-01 7.13090003e-02
      1.92671165e-01 2.52649933e-02 2.86315501e-01 2.36129742e-02
      3.90285254e-02 1.91931222e-02 2.86315501e-01 2.35125422e-01
      7.97691047e-02 2.22744927e-01 2.17167269e-02 2.86315501e-01
      2.04743072e-02 3.12578715e-02 1.64778009e-02 2.34637424e-01</_>
    <_>
      2.80039757e-01 3.07554081e-02 1.17947645e-01 5.28569929e-02
      3.01016301e-01 1.89317856e-02 1.81628652e-02 9.96155012e-03
      2.64100373e-01 1.20832674e-01 3.31913345e-02 1.15604252e-01
      4.98702638e-02 3.01016301e-01 2.04230845e-02 2.07995251e-02
      1.02001922e-02 1.19712792e-01 2.10249633e-01 1.52925611e-01
      3.01016301e-01 9.13838819e-02 3.01016301e-01 3.43259647e-02
      3.79970483e-02 1.91575866e-02 1.92963943e-01 2.18222350e-01
      1.74568757e-01 3.01016301e-01 7.83518404e-02 3.01016301e-01
      3.20559889e-02 3.30664776e-02 1.60641260e-02 1.92610845e-01</_>
    <_>
      6.84195831e-02 1.16125420e-02 2.54291221e-02 6.41454533e-02
      4.40798134e-01 3.73772830e-02 1.34595307e-02 1.02101006e-02
      6.99210167e-02 2.02628717e-01 7.34867454e-02 1.07776575e-01
      7.94873610e-02 4.40798134e-01 2.13908911e-01 1.37389272e-01
      3.28305848e-02 1.83245197e-01 7.24501759e-02 1.08598629e-02
      2.20320690e-02 5.84009998e-02 4.40798134e-01 3.49697322e-02
      1.31771117e-02 9.13802441e-03 7.19132274e-02 9.36268568e-02
      1.64459888e-02 1.71733592e-02 3.03761717e-02 4.40798134e-01
      5.86989261e-02 2.69929022e-02 1.25425449e-02 8.97421837e-02</_>
    <_>
      2.97892004e-01 7.86077138e-03 2.66000871e-02 7.15310080e-03
      2.97892004e-01 3.83847975e-03 1.03183044e-02 4.63142479e-03
      2.97892004e-01 2.85085231e-01 7.89580867e-03 2.01498382e-02
      4.38826391e-03 2.97892004e-01 3.45915370e-03 1.80888772e-02
      7.84486160e-03 2.86437541e-01 2.92582244e-01 4.97878296e-03
      1.57015305e-02 4.46728757e-03 2.97892004e-01 3.08621745e-03
      9.04078968e-03 4.08683484e-03 2.93173134e-01 2.52183110e-01
      4.07226058e-03 1.10509470e-02 3.21502960e-03 2.97892004e-01
      2.08424870e-03 6.01346837e-03 2.80173868e-03 2.52321422e-01</_>
    <_>
      2.69231886e-01 8.50358531e-02 2.16491103e-01 6.27108291e-02
      2.69231886e-01 3.34098153e-02 1.35000810e-01 5.44274598e-02
      2.69231886e-01 2.69231886e-01 9.41575468e-02 2.18138218e-01
      6.63870871e-02 2.69231886e-01 3.60064134e-02 1.66486606e-01
      7.00812712e-02 2.69231886e-01 1.81638986e-01 9.35721472e-02
      2.50216454e-01 6.28326610e-02 2.69231886e-01 2.41498742e-02
      3.56741585e-02 1.86404828e-02 1.62970528e-01 1.52302220e-01
      9.00919884e-02 2.29850754e-01 4.85868827e-02 2.69231886e-01
      2.01819148e-02 2.65710037e-02 1.45467222e-02 1.31937340e-01</_>
    <_>
      2.61904955e-01 3.97090167e-02 8.26332718e-02 3.56332511e-02
      3.26166868e-01 3.88393402e-02 1.06704444e-01 4.42515090e-02
      2.63655931e-01 8.93826783e-02 4.66613919e-02 1.13831185e-01
      4.68610190e-02 3.26166868e-01 3.32563967e-02 9.02071670e-02
      3.62460390e-02 8.77997056e-02 1.57459095e-01 1.47131920e-01
      3.26166868e-01 5.44001162e-02 3.26166868e-01 3.45314071e-02
      3.91034223e-02 2.88615264e-02 1.52489543e-01 1.33330360e-01
      1.74938306e-01 3.26166868e-01 7.28068650e-02 3.26166868e-01
      4.65913862e-02 5.66372164e-02 3.10057085e-02 1.26415566e-01</_>
    <_>
      2.78848946e-01 2.42502149e-02 3.37858833e-02 1.76581834e-02
      2.78848946e-01 1.43847363e-02 4.71242853e-02 2.06905995e-02
      2.78848946e-01 2.78848946e-01 1.55280694e-01 1.95763826e-01
      2.11223532e-02 2.78848946e-01 2.16324013e-02 1.05756953e-01
      4.11239862e-02 2.78848946e-01 2.78848946e-01 6.51311409e-03
      1.91230346e-02 1.39114466e-02 2.78848946e-01 1.14319185e-02
      1.63880959e-02 8.22866615e-03 2.78848946e-01 2.59158373e-01
      1.57755222e-02 2.51942240e-02 1.06589189e-02 2.78848946e-01
      1.35155143e-02 3.23942639e-02 1.28265619e-02 2.60572940e-01</_>
    <_>
      2.71184623e-01 1.39030954e-02 3.31194066e-02 3.39045525e-02
      3.40420991e-01 2.39343494e-02 1.73184015e-02 9.80866142e-03
      2.69782096e-01 2.45741338e-01 1.16649000e-02 2.29989402e-02
      1.91909689e-02 3.40420991e-01 2.33594682e-02 2.41928902e-02
      1.19307525e-02 2.42960811e-01 2.66120076e-01 1.13905091e-02
      2.56313905e-02 2.58958619e-02 3.40420991e-01 1.86066311e-02
      1.57095715e-02 9.86944884e-03 2.68466681e-01 2.37811804e-01
      7.92303123e-03 1.51819084e-02 1.34132626e-02 3.40420991e-01
      1.72014404e-02 1.64998136e-02 9.91704222e-03 2.42609352e-01</_>
    <_>
      7.69378990e-02 1.66340582e-02 2.39493120e-02 1.31213125e-02
      3.16372991e-01 1.56997163e-02 2.40315944e-02 1.63458381e-02
      8.09089839e-02 2.51368970e-01 1.20986074e-01 2.83247441e-01
      6.69687614e-02 3.16372991e-01 3.06960605e-02 3.46867554e-02
      2.24873498e-02 2.36950338e-01 1.18167065e-01 1.28407646e-02
      2.06557270e-02 8.61203857e-03 3.16372991e-01 1.65308919e-02
      1.46959992e-02 8.44766200e-03 1.24693260e-01 3.16372991e-01
      1.38962522e-01 3.16016316e-01 6.90174997e-02 3.16372991e-01
      4.51102480e-02 4.61067744e-02 3.91704962e-02 3.16372991e-01</_>
    <_>
      2.44952977e-01 8.70745406e-02 1.96918234e-01 7.85937086e-02
      2.78817117e-01 2.56545320e-02 9.48417857e-02 4.26550806e-02
      2.31794938e-01 1.44466579e-01 1.05258055e-01 2.16479927e-01
      7.09733590e-02 2.78817117e-01 2.96010617e-02 1.12220541e-01
      4.28508148e-02 1.38390347e-01 2.46124282e-01 1.50985599e-01
      2.78817117e-01 9.57572311e-02 2.78817117e-01 2.03744508e-02
      3.82298604e-02 2.92240325e-02 2.21195757e-01 1.88227743e-01
      1.45297632e-01 2.78817117e-01 7.14521259e-02 2.78817117e-01
      1.87768191e-02 2.98187975e-02 1.97188593e-02 1.65087089e-01</_>
    <_>
      0. 0. 0. 0. 0. 0. 0. 0. 0. 3.87311935e-01 3.16331387e-01
      3.30984652e-01 2.00533897e-01 3.87311935e-01 3.87311935e-01
      3.87311935e-01 1.33081004e-01 3.54085863e-01 0. 0. 0. 0. 0. 0. 0.
      0. 0. 3.08404341e-02 2.30985899e-02 3.94611945e-03 1.39178173e-03
      2.53016576e-02 1.48898680e-02 1.18920878e-02 2.15699384e-03
      2.57050693e-02</_>
    <_>
      8.42999071e-02 1.14137540e-02 2.17745434e-02 1.75442025e-02
      3.54447454e-01 9.60577466e-03 1.57066602e-02 1.16829537e-02
      8.78799558e-02 3.09418648e-01 1.93760008e-01 1.89185545e-01
      7.26864487e-02 3.54447454e-01 3.15362990e-01 2.42748037e-01
      5.66820055e-02 2.71044910e-01 1.14802077e-01 1.18477112e-02
      1.73651166e-02 1.35839609e-02 3.54447454e-01 6.31840527e-03
      1.25325443e-02 1.45017961e-02 1.16511427e-01 1.38480857e-01
      2.64247861e-02 1.45738563e-02 9.31672473e-03 3.54447454e-01
      2.20132638e-02 2.47772671e-02 1.68785881e-02 1.37650341e-01</_>
    <_>
      2.91398987e-02 6.69517880e-03 1.16562918e-02 5.90712670e-03
      2.97975898e-01 1.77024177e-03 7.56495167e-03 6.62499294e-03
      2.99637578e-02 3.33363563e-01 2.15876698e-01 2.37087786e-01
      1.13405213e-01 3.50890726e-01 3.34549576e-01 3.50890726e-01
      1.16185911e-01 3.01101774e-01 4.40329872e-02 8.50013178e-03
      1.03071909e-02 4.53494256e-03 3.04914027e-01 2.19737343e-03
      8.09485931e-03 7.46382959e-03 4.38493192e-02 7.26985559e-02
      2.58025769e-02 1.11733107e-02 4.14612750e-03 3.28225911e-01
      1.72076058e-02 2.06849538e-02 1.37963006e-02 6.78257942e-02</_>
    <_>
      4.58935015e-02 1.29522095e-02 3.15044001e-02 2.60074344e-02
      3.73158664e-01 1.88778788e-02 2.35296655e-02 1.42098721e-02
      4.74131629e-02 3.23159009e-01 1.23621911e-01 2.99195379e-01
      5.04332781e-02 3.73158664e-01 5.71283139e-02 1.04574226e-01
      4.93548699e-02 3.27619463e-01 1.56788565e-02 3.91588919e-03
      1.30972555e-02 1.67306811e-02 3.73158664e-01 1.00559620e-02
      8.07491317e-03 3.10989679e-03 1.52707612e-02 2.05598116e-01
      3.36503834e-02 7.62674809e-02 1.72278564e-02 3.73158664e-01
      2.48434078e-02 4.58134227e-02 1.63648222e-02 2.06426755e-01</_>
    <_>
      2.01300845e-01 8.30860510e-02 2.27709308e-01 1.18487388e-01
      3.38136643e-01 6.42660037e-02 9.18349326e-02 3.85199115e-02
      1.92812949e-01 1.40245602e-01 8.03227425e-02 2.29058146e-01
      1.08549722e-01 3.38136643e-01 5.55340350e-02 7.73601606e-02
      3.00142579e-02 1.28282249e-01 1.93741426e-01 9.79439542e-02
      2.29261562e-01 7.49483556e-02 3.38136643e-01 3.59006301e-02
      3.49609740e-02 1.76862683e-02 1.86862618e-01 1.56258613e-01
      8.95797908e-02 2.29603410e-01 7.26439357e-02 3.38136643e-01
      3.96176651e-02 2.86611822e-02 1.34272603e-02 1.47927374e-01</_>
    <_>
      1.90531775e-01 4.46043164e-02 8.37747604e-02 1.52890142e-02
      2.96199918e-01 1.79109387e-02 5.28509095e-02 2.88129635e-02
      1.92273870e-01 2.96199918e-01 1.69387817e-01 2.96199918e-01
      5.88232093e-02 2.96199918e-01 5.06130904e-02 9.85682234e-02
      5.04012331e-02 2.96199918e-01 1.60597101e-01 3.11414339e-02
      4.68664579e-02 4.61859303e-03 1.46385983e-01 1.04780849e-02
      5.09220585e-02 2.37068553e-02 1.65338129e-01 2.96199918e-01
      1.35630175e-01 2.82103807e-01 2.60118693e-02 2.44517222e-01
      2.48454027e-02 8.45381245e-02 4.74894866e-02 2.96199918e-01</_>
    <_>
      3.19667369e-01 2.45135166e-02 4.70981561e-02 2.01117434e-02
      3.19667369e-01 2.29862761e-02 6.01026602e-02 2.73840390e-02
      3.19667369e-01 3.19667369e-01 1.50651142e-01 3.19667369e-01
      4.35790829e-02 3.19667369e-01 6.19142316e-02 1.95313483e-01
      8.84179547e-02 3.19667369e-01 1.99325792e-02 6.60316320e-03
      1.69287566e-02 5.41565707e-03 2.93289542e-01 5.66467736e-03
      9.36846342e-03 4.88224812e-03 2.20324714e-02 4.12148759e-02
      1.86301190e-02 4.15508673e-02 6.57997606e-03 3.19667369e-01
      1.35670649e-02 5.24641573e-02 1.92964822e-02 4.76596132e-02</_>
    <_>
      5.44873849e-02 6.28705649e-03 1.63664408e-02 4.80615906e-02
      4.36629742e-01 2.62280721e-02 1.20566748e-02 7.23183481e-03
      5.32170311e-02 2.35288143e-01 7.84880742e-02 1.30130544e-01
      7.92264938e-02 4.36629742e-01 2.14860991e-01 1.42644629e-01
      3.44570391e-02 2.08063692e-01 3.81363481e-02 7.31810927e-03
      1.59495566e-02 4.70746085e-02 4.36629742e-01 2.53745317e-02
      1.05455136e-02 5.25619183e-03 3.82602997e-02 9.15630609e-02
      1.80721413e-02 1.83716603e-02 3.01752910e-02 4.36629742e-01
      6.36306405e-02 2.92698294e-02 8.85732472e-03 8.28437805e-02</_>
    <_>
      2.71679729e-01 5.48876487e-02 1.25080034e-01 4.10959534e-02
      2.63569087e-01 1.26501890e-02 1.23183019e-02 7.06235226e-03
      2.71679729e-01 2.51265407e-01 1.21674344e-01 2.71679729e-01
      1.49870753e-01 2.71679729e-01 3.41878608e-02 2.92534437e-02
      2.17264555e-02 2.31014296e-01 8.61573964e-02 1.90206677e-01
      2.71679729e-01 6.63310140e-02 2.71679729e-01 3.16845626e-02
      3.84352691e-02 1.85302068e-02 6.10250756e-02 1.27489388e-01
      2.71679729e-01 2.71679729e-01 8.32908228e-02 2.71679729e-01
      3.44436392e-02 4.14406732e-02 2.09987983e-02 7.39537552e-02</_>
    <_>
      3.09108913e-01 6.36315644e-02 1.63224414e-01 9.67402607e-02
      3.09108913e-01 5.64897954e-02 9.95797515e-02 4.49731573e-02
      3.09108913e-01 3.09108913e-01 6.91178218e-02 1.59288242e-01
      9.55144763e-02 3.09108913e-01 6.48484826e-02 1.03301026e-01
      4.81150635e-02 3.09108913e-01 1.49171054e-01 4.84780222e-02
      1.14241175e-01 6.08149804e-02 3.09108913e-01 2.97097433e-02
      2.17058863e-02 1.83566622e-02 1.47571042e-01 1.38977036e-01
      4.52164225e-02 1.04753613e-01 4.92404625e-02 3.09108913e-01
      3.25160176e-02 2.15157513e-02 1.64492335e-02 1.39689505e-01</_>
    <_>
      2.81878710e-01 2.48440094e-02 9.45818201e-02 6.28672019e-02
      3.22280884e-01 5.09416163e-02 1.10729478e-01 3.66307572e-02
      2.78937131e-01 9.23818052e-02 2.97338534e-02 1.31876513e-01
      7.73331523e-02 3.22280884e-01 3.84869501e-02 9.78910998e-02
      3.12775709e-02 8.86788592e-02 1.29459918e-01 1.15048490e-01
      3.22280884e-01 1.23826377e-01 3.22280884e-01 3.75051983e-02
      3.60225029e-02 1.82081275e-02 1.17589489e-01 1.14963457e-01
      1.34375677e-01 3.22280884e-01 1.60861954e-01 3.22280884e-01
      4.56914939e-02 4.49885093e-02 2.61307172e-02 9.89062712e-02</_>
    <_>
      2.69751549e-01 6.07653148e-02 1.60707444e-01 3.40304226e-02
      2.55679309e-01 1.49474461e-02 1.35632623e-02 1.07273944e-02
      2.69751549e-01 2.31371939e-01 1.36854544e-01 2.69751549e-01
      1.43290222e-01 2.69751549e-01 4.10713665e-02 2.36685686e-02
      2.62681507e-02 2.09094375e-01 1.30782351e-01 1.78321093e-01
      2.69751549e-01 4.81816940e-02 2.69751549e-01 2.41776351e-02
      5.18082865e-02 2.44135410e-02 1.04941145e-01 1.42468378e-01
      2.69751549e-01 2.69751549e-01 6.75801411e-02 2.69751549e-01
      3.08867041e-02 4.75569069e-02 3.15830447e-02 1.05873406e-01</_>
    <_>
      3.11433524e-01 5.11528878e-03 1.06187463e-02 7.97973573e-03
      2.09298581e-01 8.30799807e-03 4.98808920e-03 6.44068094e-03
      3.11433524e-01 3.11433524e-01 4.67080586e-02 4.01462540e-02
      1.96998697e-02 2.46914685e-01 1.96225811e-02 2.86535826e-02
      9.04729031e-03 3.11433524e-01 2.39710823e-01 7.26420432e-03
      2.39473023e-02 2.02596840e-02 3.11433524e-01 1.77014172e-02
      5.79395657e-03 5.87787526e-03 2.38257676e-01 2.61998653e-01
      1.31899267e-01 1.53981283e-01 6.53299242e-02 3.11433524e-01
      6.00242317e-02 8.36382136e-02 2.76104622e-02 2.51668751e-01</_>
    <_>
      2.95371264e-01 9.95771866e-03 2.55705696e-02 1.33055504e-02
      2.95371264e-01 4.84022824e-03 8.77525751e-03 3.56765813e-03
      2.95371264e-01 2.71445006e-01 8.24696291e-03 1.44386357e-02
      5.38708223e-03 2.95371264e-01 4.44048876e-03 1.82605386e-02
      8.05364270e-03 2.68142074e-01 2.95371264e-01 5.40674198e-03
      1.50354486e-02 8.88056774e-03 2.95371264e-01 6.03451347e-03
      1.03114368e-02 3.56441434e-03 2.95371264e-01 2.76318222e-01
      4.54794569e-03 1.10287592e-02 5.95240109e-03 2.95371264e-01
      3.49932304e-03 5.79893775e-03 2.73935823e-03 2.73263931e-01</_>
    <_>
      2.67714232e-01 5.78184016e-02 2.00901300e-01 4.26313914e-02
      1.72804445e-01 3.28469239e-02 5.99986501e-02 2.47502308e-02
      2.67714232e-01 2.67714232e-01 2.59422123e-01 2.67714232e-01
      1.07927524e-01 2.67714232e-01 7.64861554e-02 1.28278852e-01
      7.76038617e-02 2.67714232e-01 2.89827790e-02 1.92982834e-02
      7.40965754e-02 2.44117379e-02 1.19694047e-01 4.22146320e-02
      8.79618376e-02 4.08881567e-02 5.36691807e-02 2.35216185e-01
      1.22889698e-01 2.48424947e-01 5.26225828e-02 2.27878958e-01
      1.01023458e-01 2.30561078e-01 1.47564337e-01 2.67714232e-01</_>
    <_>
      1.64006442e-01 2.05021780e-02 6.46074042e-02 4.77709249e-02
      4.43421513e-01 1.59767978e-02 1.39189120e-02 9.31404904e-03
      1.51847214e-01 2.21711606e-01 7.51315430e-02 1.32622212e-01
      3.19954082e-02 1.27090082e-01 6.02730084e-03 1.10076545e-02
      7.22027943e-03 2.04086795e-01 9.52775776e-02 6.24328554e-02
      1.57768473e-01 5.83824292e-02 4.43421513e-01 2.93206759e-02
      2.37397384e-02 1.28901415e-02 9.78648886e-02 1.13549784e-01
      3.11865270e-01 4.43421513e-01 9.04495344e-02 1.86305985e-01
      3.04561965e-02 3.63758802e-02 2.39100102e-02 9.27352905e-02</_>
    <_>
      2.66308546e-01 9.36423708e-03 2.24859118e-02 4.35433351e-02
      3.58241618e-01 3.28283906e-02 1.39184380e-02 7.99079239e-03
      2.65517771e-01 2.28607595e-01 1.06337965e-02 1.71731785e-02
      3.26440260e-02 3.58241618e-01 4.06123251e-02 2.31107306e-02
      1.04733324e-02 2.26266265e-01 2.52659798e-01 1.00008547e-02
      1.99586470e-02 4.01210785e-02 3.58241618e-01 3.04519795e-02
      1.59459207e-02 9.54593811e-03 2.53831923e-01 2.17472106e-01
      9.64849535e-03 1.38144996e-02 2.99659651e-02 3.58241618e-01
      3.52917984e-02 1.91880465e-02 1.05700567e-02 2.20802009e-01</_>
    <_>
      3.33759844e-01 1.62467901e-02 3.20777372e-02 1.53812217e-02
      2.74079263e-01 1.08914096e-02 1.95842739e-02 1.05502289e-02
      3.33759844e-01 3.33759844e-01 5.62560521e-02 5.86971641e-02
      3.00600715e-02 3.33759844e-01 7.83520341e-02 3.33759844e-01
      2.15944558e-01 3.33759844e-01 2.30986997e-02 2.82736798e-03
      1.74994804e-02 1.55283185e-02 2.75518417e-01 6.20165747e-03
      5.26976958e-03 2.26414436e-03 2.30846126e-02 1.98203884e-02
      1.97891751e-03 3.89463617e-03 7.72921788e-03 3.33759844e-01
      1.80976037e-02 2.36123707e-02 2.80785724e-03 1.94997694e-02</_>
    <_>
      1.39504671e-01 3.19355205e-02 8.29006433e-02 1.36431186e-02
      3.01944524e-01 8.05473048e-03 3.44162211e-02 2.79843137e-02
      1.59511447e-01 2.09139690e-01 1.66550308e-01 3.01944524e-01
      6.75058886e-02 3.01944524e-01 2.81232912e-02 1.83471590e-02
      1.59326158e-02 1.90818757e-01 1.24936268e-01 3.52913328e-02
      9.78650227e-02 1.42112914e-02 3.01944524e-01 1.15045039e-02
      1.54121025e-02 8.82295147e-03 1.30860671e-01 3.01944524e-01
      2.37356350e-01 3.01944524e-01 5.56825660e-02 3.01944524e-01
      3.33894454e-02 3.64250429e-02 2.46621054e-02 2.88529843e-01</_>
    <_>
      2.87124783e-01 1.00461505e-02 1.64934658e-02 2.25485340e-02
      3.25423807e-01 1.91019010e-02 1.29865184e-02 6.04390912e-03
      2.88415104e-01 2.39556715e-01 9.11769271e-03 1.19751720e-02
      1.43427029e-02 3.25423807e-01 2.05716044e-02 2.67325416e-02
      1.02093155e-02 2.37617061e-01 2.94020742e-01 1.04777673e-02
      1.80156119e-02 2.21996065e-02 3.25423807e-01 1.94710437e-02
      1.43000875e-02 6.37579663e-03 2.94098020e-01 2.40113407e-01
      6.81324443e-03 1.07454769e-02 1.30699081e-02 3.25423807e-01
      2.01902408e-02 1.84917320e-02 7.69492704e-03 2.39285842e-01</_>
    <_>
      2.65219092e-01 1.47376359e-02 3.69025916e-02 4.34479676e-02
      3.55046213e-01 3.28489169e-02 1.75945945e-02 8.85533169e-03
      2.63347387e-01 2.27692977e-01 1.47630246e-02 2.62751225e-02
      2.92439573e-02 3.55046213e-01 3.86218727e-02 2.73601301e-02
      1.05116842e-02 2.23181456e-01 2.60705829e-01 1.00619793e-02
      2.74393298e-02 4.23944890e-02 3.55046213e-01 3.05469632e-02
      1.79623086e-02 8.82304460e-03 2.60998309e-01 2.20835090e-01
      7.77426315e-03 1.87937971e-02 2.78621111e-02 3.55046213e-01
      3.77102457e-02 2.14745440e-02 8.71284585e-03 2.23240912e-01</_>
    <_>
      5.96091449e-02 1.26343416e-02 2.37780474e-02 2.85418592e-02
      3.42756540e-01 2.53153201e-02 2.10813563e-02 1.49410600e-02
      6.20226413e-02 3.42756540e-01 1.63325891e-01 3.42756540e-01
      9.98127535e-02 3.42756540e-01 1.65931746e-01 1.62805364e-01
      5.61568476e-02 3.30291897e-01 8.94029960e-02 1.10356640e-02
      1.50199886e-02 1.83805320e-02 3.42756540e-01 1.11975465e-02
      1.14685632e-02 1.23849688e-02 8.82138833e-02 1.69958323e-01
      4.02755029e-02 4.70269248e-02 1.83766671e-02 3.42756540e-01
      4.11926806e-02 3.94740663e-02 1.78568717e-02 1.58146530e-01</_>
    <_>
      4.29664319e-03 3.89216398e-03 1.14403162e-02 1.89233758e-02
      4.77627516e-01 1.91054679e-02 1.90887880e-02 5.35461120e-03
      4.31377767e-03 2.76677287e-03 2.56196456e-03 4.33220482e-03
      8.46653059e-03 4.77627516e-01 1.34976804e-02 1.49685135e-02
      4.05248860e-03 2.64440826e-03 4.84237224e-02 4.02787002e-03
      9.82878637e-03 1.50971366e-02 4.77627516e-01 1.45376166e-02
      1.90347210e-02 5.31757670e-03 5.17456532e-02 1.88034728e-01
      2.11840719e-02 2.51714047e-02 3.90884168e-02 4.77627516e-01
      4.20535877e-02 4.66916747e-02 2.22630519e-02 1.80296600e-01</_>
    <_>
      5.60644679e-02 1.04412250e-02 2.48945653e-02 2.93364041e-02
      3.20146024e-01 3.36511731e-02 3.27330269e-02 1.00583266e-02
      5.55836037e-02 3.20146024e-01 1.38308510e-01 3.20102364e-01
      5.80653548e-02 3.20146024e-01 8.32793191e-02 9.30203274e-02
      3.39200534e-02 3.20146024e-01 4.22454961e-02 3.05411941e-03
      7.54111446e-03 1.43120522e-02 3.20146024e-01 1.47153856e-02
      1.23454770e-02 2.24769465e-03 3.81438248e-02 3.20146024e-01
      5.91753013e-02 1.25413552e-01 2.16676928e-02 3.20146024e-01
      3.69453132e-02 5.33389412e-02 1.81105100e-02 3.15265298e-01</_>
    <_>
      3.48116606e-01 1.47497067e-02 2.76844725e-02 1.29017681e-02
      3.48116606e-01 5.75876655e-03 8.19365587e-03 4.57731681e-03
      3.48116606e-01 3.48116606e-01 1.92073863e-02 2.32510418e-02
      1.48551594e-02 3.48116606e-01 2.84860823e-02 1.08433209e-01
      3.37326042e-02 3.48116606e-01 4.68985960e-02 3.19023943e-03
      2.17878222e-02 1.89094376e-02 3.48116606e-01 8.24238546e-03
      3.05103138e-03 1.39573042e-03 4.56935912e-02 4.30095345e-02
      2.94587179e-03 4.91376640e-03 1.30244652e-02 3.48116606e-01
      2.82936301e-02 3.22991125e-02 3.79397464e-03 4.25674804e-02</_>
    <_>
      2.88304210e-01 5.85824661e-02 1.42834127e-01 1.56709589e-02
      1.70740560e-01 1.56633873e-02 7.68808415e-03 6.85666827e-03
      2.88304210e-01 2.88304210e-01 2.08946690e-01 2.88304210e-01
      6.61986768e-02 2.54203200e-01 5.51284812e-02 2.58306991e-02
      2.18291916e-02 2.88304210e-01 4.12534997e-02 1.87415078e-01
      2.88304210e-01 4.42100465e-02 2.26390511e-01 3.05366311e-02
      2.56307665e-02 2.35075876e-02 3.54432426e-02 9.84907076e-02
      2.88304210e-01 2.88304210e-01 5.84584810e-02 2.10283116e-01
      4.32009697e-02 3.41631062e-02 3.15362252e-02 8.33188295e-02</_>
    <_>
      3.02819431e-01 5.01331761e-02 9.87827033e-02 1.80166569e-02
      3.03283092e-02 6.54119952e-03 9.31985397e-03 8.51073768e-03
      3.02819431e-01 3.02819431e-01 2.64545321e-01 3.02819431e-01
      1.10391766e-01 1.46248534e-01 3.03917266e-02 3.44780162e-02
      4.08609696e-02 3.02819431e-01 5.43812104e-02 2.05941200e-01
      3.02819431e-01 6.83545619e-02 1.51260763e-01 3.22434828e-02
      3.59775685e-02 2.89678425e-02 3.36458459e-02 1.16809130e-01
      3.02819431e-01 3.02819431e-01 1.01883098e-01 1.76808685e-01
      3.80780399e-02 4.55855466e-02 4.32546474e-02 6.63850754e-02</_>
    <_>
      3.20956081e-01 1.21547524e-02 1.61792301e-02 5.69541752e-03
      6.19550720e-02 2.51535419e-03 5.25835203e-03 3.71021824e-03
      3.20956081e-01 3.20956081e-01 1.05387054e-01 3.06453854e-01
      1.81299299e-01 3.20956081e-01 5.38742766e-02 3.13654095e-02
      2.73245815e-02 3.20956081e-01 2.51755025e-02 8.42551887e-02
      1.71812490e-01 2.30952837e-02 2.95191091e-02 3.19499429e-03
      6.84633711e-03 4.91318526e-03 1.72223095e-02 8.16364288e-02
      2.37097636e-01 3.20956081e-01 1.41326144e-01 3.20956081e-01
      3.40663716e-02 3.05350330e-02 2.34767236e-02 6.57320395e-02</_>
    <_>
      2.94000566e-01 1.17940279e-02 2.94280145e-02 2.04129722e-02
      3.09261411e-01 1.14975935e-02 8.83168168e-03 5.66146988e-03
      2.81111240e-01 2.44230941e-01 6.23318367e-03 9.27103125e-03
      1.03399828e-02 3.09261411e-01 1.89449694e-02 2.20155064e-02
      8.46191589e-03 2.42340729e-01 3.09261411e-01 6.46784995e-03
      2.49578245e-02 2.25729849e-02 3.09261411e-01 1.39522236e-02
      1.38177555e-02 9.92465392e-03 3.09261411e-01 2.59541601e-01
      3.53855873e-03 8.43631104e-03 1.01420823e-02 3.09261411e-01
      1.54244071e-02 1.37752136e-02 4.63769166e-03 2.58359402e-01</_>
    <_>
      1.43441949e-02 2.59666401e-03 8.85234587e-03 6.82655396e-03
      3.01442206e-01 3.72996903e-03 6.22707419e-03 2.42033880e-03
      1.44401398e-02 2.86894262e-01 1.63933381e-01 2.66187340e-01
      1.69889599e-01 3.86865109e-01 3.86865109e-01 2.80615658e-01
      6.25109822e-02 2.46439591e-01 9.41015035e-03 2.29024328e-03
      7.70086842e-03 7.57042179e-03 3.26091707e-01 2.73247156e-03
      4.51728050e-03 2.11424101e-03 9.48960241e-03 8.29928294e-02
      3.75637114e-02 3.10785286e-02 1.08206086e-02 3.59096318e-01
      4.48683575e-02 3.33065055e-02 1.05263880e-02 6.93844482e-02</_>
    <_>
      4.94531453e-01 1.74182709e-02 3.00580021e-02 1.80155016e-03
      7.05233067e-02 1.13578059e-03 2.91755097e-03 2.94517633e-03
      4.94531453e-01 4.94531453e-01 1.94125399e-02 3.07082925e-02
      4.13065683e-03 9.34135243e-02 8.72078165e-03 1.93341598e-02
      1.00203883e-02 4.94531453e-01 0. 0. 0. 0. 0. 0. 0. 0. 0. 0. 0. 0.
      0. 0. 0. 0. 0. 0.</_>
    <_>
      2.71956295e-01 2.58283243e-02 4.94978987e-02 3.07784677e-02
      3.35876793e-01 1.94839127e-02 2.50137728e-02 1.88492034e-02
      2.72338301e-01 2.53466457e-01 4.25723530e-02 6.97413012e-02
      3.95469964e-02 3.35876793e-01 3.00162379e-02 3.42512093e-02
      2.00571045e-02 2.48370484e-01 2.62613058e-01 1.30814612e-02
      2.41887309e-02 1.57751571e-02 3.35876793e-01 1.07272184e-02
      1.48560544e-02 1.22818537e-02 2.64378279e-01 2.35914230e-01
      1.38535900e-02 1.95071269e-02 1.06734354e-02 3.35876793e-01
      1.63615327e-02 1.68508217e-02 1.09708188e-02 2.40459621e-01</_>
    <_>
      2.60667771e-01 1.00078061e-01 2.01571018e-01 5.22752851e-02
      2.60667771e-01 2.02896558e-02 3.52990367e-02 2.88315546e-02
      2.60667771e-01 2.55439848e-01 2.25107819e-01 2.60667771e-01
      9.10534039e-02 2.60667771e-01 3.30820605e-02 3.39270048e-02
      3.08259614e-02 2.16635168e-01 1.95938274e-01 8.81428868e-02
      1.65167391e-01 3.97194996e-02 2.60667771e-01 1.86996758e-02
      4.10575271e-02 3.11362147e-02 1.92985743e-01 2.00762272e-01
      1.71878561e-01 2.60667771e-01 5.24431691e-02 2.60667771e-01
      2.57383976e-02 4.86807488e-02 3.42402756e-02 1.77581757e-01</_>
    <_>
      3.15420091e-01 1.94273405e-02 4.67598103e-02 2.12913267e-02
      3.15420091e-01 1.72083508e-02 3.61982584e-02 2.17466243e-02
      3.15420091e-01 3.15420091e-01 1.19944803e-01 2.90482014e-01
      5.57837375e-02 3.15420091e-01 4.08155732e-02 1.15969136e-01
      6.55381456e-02 3.15420091e-01 1.39593586e-01 8.96200165e-03
      2.23715641e-02 7.68957427e-03 3.15420091e-01 7.38275237e-03
      1.06210625e-02 5.48030529e-03 1.40498519e-01 1.20675988e-01
      1.62159391e-02 3.90338600e-02 1.32525004e-02 3.15420091e-01
      1.51971430e-02 4.62745838e-02 2.08313856e-02 1.23085320e-01</_>
    <_>
      1.10829674e-01 2.38989163e-02 4.04135212e-02 2.82084644e-02
      2.96371639e-01 2.32326798e-02 3.70799974e-02 2.32852083e-02
      1.08307868e-01 2.96371639e-01 1.51102558e-01 2.96371639e-01
      1.22402869e-01 2.96371639e-01 4.84983325e-02 6.77460954e-02
      4.86125499e-02 2.96371639e-01 1.12510838e-01 1.32433763e-02
      2.57558543e-02 1.73741970e-02 2.96371639e-01 1.78363100e-02
      3.14379483e-02 2.02303231e-02 1.10384963e-01 2.96371639e-01
      1.26634970e-01 2.65282780e-01 6.52661547e-02 2.96371639e-01
      4.19029035e-02 7.77763873e-02 6.12141192e-02 2.96371639e-01</_>
    <_>
      8.94954894e-03 4.97629540e-03 1.34262480e-02 1.60586126e-02
      2.32880294e-01 2.16468796e-02 1.94646996e-02 5.40316058e-03
      9.70074348e-03 3.68392259e-01 1.46993235e-01 2.47619882e-01
      1.77841410e-01 4.22122687e-01 2.42237538e-01 2.78894514e-01
      8.43866765e-02 3.49843144e-01 3.59275960e-03 1.75209425e-03
      3.70884151e-03 1.97783415e-03 1.34518400e-01 4.63145645e-03
      3.65526928e-03 1.08847150e-03 4.05467674e-03 1.76295310e-01
      5.53113930e-02 5.06949686e-02 1.63063444e-02 3.94338846e-01
      5.48479371e-02 5.79418093e-02 1.85385793e-02 1.68060184e-01</_>
    <_>
      2.79069990e-01 6.61842972e-02 2.15325728e-01 5.16280271e-02
      1.93561941e-01 2.49515567e-02 8.44849497e-02 5.40380329e-02
      2.79069990e-01 2.79069990e-01 2.39623785e-01 2.79069990e-01
      1.19413137e-01 2.79069990e-01 5.72282821e-02 1.76491410e-01
      1.37855366e-01 2.79069990e-01 3.51271369e-02 2.08367892e-02
      5.70306890e-02 2.19639689e-02 8.85144174e-02 1.85851585e-02
      7.91586190e-02 5.46061732e-02 4.29858267e-02 1.96999699e-01
      1.26781970e-01 2.79069990e-01 5.62560745e-02 1.71740666e-01
      5.25496006e-02 1.86636582e-01 1.52978793e-01 2.28402242e-01</_>
    <_>
      9.67750922e-02 1.63449030e-02 1.43979266e-02 1.12150302e-02
      3.31349134e-01 2.47360505e-02 1.52083822e-02 1.93528496e-02
      9.74979028e-02 3.31349134e-01 1.40820920e-01 3.09645593e-01
      6.01179339e-02 3.31349134e-01 6.70254678e-02 5.73711358e-02
      6.67657927e-02 3.31349134e-01 8.65384936e-02 5.27970074e-03
      5.05796960e-03 4.80148941e-03 1.59807950e-01 1.56553704e-02
      7.00375810e-03 6.80879364e-03 8.62436667e-02 3.31349134e-01
      8.09598193e-02 1.53727993e-01 2.15306189e-02 3.31349134e-01
      3.79573330e-02 3.86905037e-02 3.76457721e-02 3.31349134e-01</_>
    <_>
      2.95468688e-01 1.29741952e-02 3.34576145e-02 1.71474442e-02
      3.13778102e-01 1.20255630e-02 2.02400442e-02 1.24496799e-02
      2.94136703e-01 2.64543176e-01 1.41262775e-02 3.00991014e-02
      1.27840554e-02 3.13778102e-01 1.30364094e-02 3.46521698e-02
      1.97188240e-02 2.67392635e-01 2.78911889e-01 1.14997420e-02
      2.20006574e-02 1.10587860e-02 3.13778102e-01 8.92483629e-03
      1.23050995e-02 1.05287340e-02 2.82530099e-01 2.46509776e-01
      9.66128334e-03 1.50832590e-02 8.55560042e-03 3.13778102e-01
      7.65690394e-03 1.33097470e-02 1.05251158e-02 2.49429524e-01</_>
    <_>
      1.97667107e-01 6.79619163e-02 1.70050099e-01 4.15712744e-02
      3.18046659e-01 4.20901068e-02 8.40222985e-02 3.75374705e-02
      1.91465721e-01 1.22445054e-01 6.50237203e-02 1.74847260e-01
      4.10405621e-02 3.18046659e-01 3.37692350e-02 8.03364441e-02
      3.34234871e-02 1.15325980e-01 2.16158003e-01 1.25449941e-01
      3.18046659e-01 4.55830023e-02 3.18046659e-01 3.61658148e-02
      5.25000021e-02 3.00347190e-02 2.07690835e-01 1.86728999e-01
      1.18549138e-01 3.11211050e-01 4.11816910e-02 3.18046659e-01
      3.40388604e-02 5.97307421e-02 2.80710664e-02 1.75224766e-01</_>
    <_>
      6.52566645e-03 3.06119584e-03 9.95243061e-03 1.72668733e-02
      4.81854588e-01 2.52900906e-02 3.25821191e-02 7.00830854e-03
      6.60726661e-03 3.29106934e-02 7.55489850e-03 2.09122840e-02
      3.75197753e-02 4.81854588e-01 5.58508933e-02 7.89837688e-02
      1.85255390e-02 3.24766189e-02 1.88876018e-02 4.14369954e-03
      4.37245145e-03 7.31952488e-03 4.81854588e-01 1.67817380e-02
      3.28298099e-02 1.01047596e-02 2.00930778e-02 1.29986003e-01
      1.49327898e-02 1.68528892e-02 1.87572893e-02 4.81854588e-01
      4.36843410e-02 9.98204425e-02 3.52946520e-02 1.31463751e-01</_>
    <_>
      2.74848580e-01 8.67143180e-03 2.22063791e-02 2.64489111e-02
      3.37298483e-01 1.77898742e-02 8.18456523e-03 5.81693929e-03
      2.77222067e-01 2.27400109e-01 8.11460987e-03 1.23790661e-02
      1.93565786e-02 3.37298483e-01 2.36262549e-02 2.69533191e-02
      1.36801442e-02 2.27650970e-01 2.93081731e-01 7.92247616e-03
      2.33245734e-02 2.55120452e-02 3.37298483e-01 1.65431239e-02
      1.05002113e-02 5.91341173e-03 2.91101187e-01 2.32103288e-01
      4.85207699e-03 1.10574700e-02 2.04252321e-02 3.37298483e-01
      2.30517909e-02 1.84576195e-02 8.12052097e-03 2.32770547e-01</_>
    <_>
      1.67306423e-01 5.53602129e-02 1.38573185e-01 3.41831855e-02
      3.08596194e-01 2.07689852e-02 4.29319777e-02 2.10499614e-02
      1.57392889e-01 3.02209884e-01 1.43804625e-01 3.08596194e-01
      4.85244431e-02 3.08596194e-01 3.63685638e-02 5.71358129e-02
      3.02214697e-02 2.90851712e-01 8.66242126e-02 3.67430821e-02
      1.02358676e-01 2.21910160e-02 3.08596194e-01 1.09911887e-02
      4.03028838e-02 1.74860507e-02 8.62016156e-02 2.19820812e-01
      1.17198147e-01 3.08596194e-01 3.28184329e-02 3.08596194e-01
      2.16658264e-02 4.87707406e-02 2.43987087e-02 2.15097412e-01</_>
    <_>
      1.84613392e-01 8.96803737e-02 2.30435327e-01 1.06435545e-01
      3.38857621e-01 5.25063872e-02 7.25926980e-02 3.52969654e-02
      1.75574526e-01 1.74219906e-01 1.08267128e-01 2.79733598e-01
      1.16666608e-01 3.38857621e-01 6.10528961e-02 8.76670256e-02
      4.12525162e-02 1.65878832e-01 1.45610645e-01 7.34470263e-02
      1.75995186e-01 7.35106021e-02 3.38857621e-01 3.33360173e-02
      3.55178788e-02 1.92604065e-02 1.42066538e-01 1.64374918e-01
      9.62528735e-02 2.37319872e-01 7.84938037e-02 3.38857621e-01
      4.76891175e-02 4.17295657e-02 2.67196242e-02 1.63401186e-01</_>
    <_>
      5.37919849e-02 1.05800377e-02 2.83610802e-02 1.72871891e-02
      4.08402979e-01 6.37600711e-03 1.09039173e-02 5.65598812e-03
      4.79207262e-02 9.61524099e-02 2.99574547e-02 5.05910292e-02
      1.20310178e-02 4.08402979e-01 2.90547544e-03 1.75126630e-03
      1.15386385e-03 8.57348591e-02 1.28730059e-01 1.09672695e-02
      2.84621660e-02 1.97728891e-02 4.08402979e-01 1.29339648e-02
      6.52693631e-03 4.07217909e-03 1.32150427e-01 2.04747111e-01
      1.76948071e-01 3.91694158e-01 5.73289506e-02 4.08402979e-01
      2.90968642e-02 1.85888764e-02 1.62070058e-02 1.86977223e-01</_>
    <_>
      2.33167876e-02 5.79704158e-03 1.79249141e-02 2.79286280e-02
      3.53263319e-01 2.98473090e-02 2.95184590e-02 7.33021367e-03
      2.29306705e-02 3.75415146e-01 1.29423857e-01 2.99707562e-01
      1.45299807e-01 3.75415146e-01 1.47218958e-01 1.84589192e-01
      5.88341989e-02 3.75415146e-01 1.21178860e-02 1.83480582e-03
      3.20165348e-03 3.48806544e-03 7.37366304e-02 7.94794876e-03
      7.83580542e-03 1.38708646e-03 1.18180364e-02 2.45678768e-01
      5.28057516e-02 8.43366310e-02 2.27377471e-02 3.46126139e-01
      4.27155569e-02 6.23994656e-02 2.04415377e-02 2.34814286e-01</_>
    <_>
      3.62073146e-02 9.12861433e-03 2.47685798e-02 4.23321910e-02
      3.94196272e-01 3.13675329e-02 2.44490113e-02 6.30024634e-03
      3.47639173e-02 2.53992587e-01 5.65356314e-02 1.22364320e-01
      4.74544428e-02 3.94196272e-01 7.43088052e-02 9.05808508e-02
      2.54050214e-02 2.46904537e-01 2.50594933e-02 3.68041382e-03
      9.94910393e-03 3.82318608e-02 3.94196272e-01 2.29739845e-02
      1.43726505e-02 3.82062537e-03 2.31606923e-02 3.18058908e-01
      2.92244442e-02 4.44345511e-02 2.75827069e-02 3.94196272e-01
      4.90646958e-02 5.92193715e-02 1.96118802e-02 3.05065244e-01</_>
    <_>
      2.80714363e-01 6.98802695e-02 1.64079562e-01 4.06718440e-02
      2.80714363e-01 3.47839929e-02 7.61720911e-02 2.96269581e-02
      2.80714363e-01 2.80714363e-01 1.48731500e-01 2.80714363e-01
      8.48557800e-02 2.80714363e-01 6.20546266e-02 1.77161500e-01
      7.05777928e-02 2.80714363e-01 1.37016475e-01 4.34746258e-02
      8.81780162e-02 2.20799074e-02 1.82456002e-01 2.42900122e-02
      4.31081466e-02 1.52591793e-02 1.30073786e-01 2.62076765e-01
      9.41051468e-02 2.00932398e-01 4.25797999e-02 2.60728389e-01
      3.91473919e-02 6.06056415e-02 2.17488017e-02 2.43926078e-01</_>
    <_>
      6.38004765e-02 2.06294972e-02 3.10179796e-02 2.02747881e-02
      3.43394876e-01 4.58770394e-02 3.90706584e-02 1.62755847e-02
      6.40136972e-02 3.43394876e-01 2.16858149e-01 3.43394876e-01
      1.15684658e-01 3.43394876e-01 1.72938332e-01 1.84038594e-01
      9.19584036e-02 3.43394876e-01 3.74749191e-02 7.92197417e-03
      8.13530013e-03 3.78838601e-03 1.98487207e-01 1.23909665e-02
      1.04598682e-02 6.38690917e-03 3.79275940e-02 2.03670546e-01
      7.69414082e-02 9.83008891e-02 2.27600560e-02 3.43394876e-01
      4.73182537e-02 4.71785329e-02 2.94894129e-02 1.92188978e-01</_>
    <_>
      2.73114622e-01 7.49947969e-03 1.97645817e-02 1.61915403e-02
      3.27562481e-01 1.11530125e-02 7.20082596e-03 4.10606200e-03
      2.76360393e-01 2.26028785e-01 6.03300100e-03 9.55875963e-03
      1.20199928e-02 3.27562481e-01 1.87625270e-02 2.88843364e-02
      1.20513150e-02 2.24940479e-01 3.10078114e-01 6.23714179e-03
      1.87464654e-02 1.84274651e-02 3.27562481e-01 1.16405291e-02
      1.32176075e-02 5.73260989e-03 3.07261527e-01 2.44810537e-01
      3.49213020e-03 8.11872445e-03 1.19643277e-02 3.27562481e-01
      1.73624437e-02 2.84048654e-02 9.42363963e-03 2.43714780e-01</_>
    <_>
      2.69710630e-01 1.00891091e-01 2.47002289e-01 1.94950514e-02
      1.75427616e-01 2.22900268e-02 3.84010673e-02 1.84388608e-02
      2.69710630e-01 2.69710630e-01 2.57054210e-01 2.69710630e-01
      4.42507453e-02 2.69710630e-01 4.67706956e-02 5.45236766e-02
      2.97719911e-02 2.69710630e-01 8.99236351e-02 6.91067055e-02
      1.63252339e-01 1.75682493e-02 1.72438964e-01 1.82228982e-02
      1.10901982e-01 4.37984392e-02 8.35693628e-02 2.06473380e-01
      1.98185757e-01 2.69710630e-01 2.84355972e-02 2.69710630e-01
      3.11089940e-02 1.42430678e-01 6.28826022e-02 1.93908110e-01</_>
    <_>
      2.71347135e-01 1.05562001e-01 2.71347135e-01 8.85866508e-02
      2.71347135e-01 3.46054472e-02 8.50545615e-02 3.34075764e-02
      2.71347135e-01 2.56443650e-01 1.09964088e-01 2.68300742e-01
      9.58584696e-02 2.71347135e-01 4.19201516e-02 8.97376016e-02
      3.53480428e-02 2.49440417e-01 1.87882215e-01 8.95594507e-02
      2.21523836e-01 4.78910282e-02 2.71347135e-01 1.55357076e-02
      2.63014100e-02 8.99120513e-03 1.73764870e-01 1.53334498e-01
      8.80791470e-02 2.05274194e-01 4.73610312e-02 2.71347135e-01
      1.41618242e-02 1.69680938e-02 6.80172397e-03 1.37677357e-01</_>
    <_>
      1.05609773e-02 3.39588779e-03 9.90392826e-03 1.20164957e-02
      2.46835679e-01 1.19866142e-02 1.12682208e-02 3.46190413e-03
      1.06037371e-02 3.70497346e-01 1.80493906e-01 2.92525113e-01
      2.15655074e-01 3.92434031e-01 2.93859541e-01 2.87663519e-01
      9.49375629e-02 3.25716257e-01 7.55113130e-03 1.99659984e-03
      5.86354779e-03 5.15895663e-03 2.12137818e-01 3.01930727e-03
      3.85045819e-03 1.78609509e-03 7.64240930e-03 1.25553995e-01
      4.63357158e-02 4.08883244e-02 1.51132941e-02 3.36894363e-01
      4.58395630e-02 4.16034833e-02 1.58296078e-02 1.07946910e-01</_>
    <_>
      2.25109592e-01 6.01626560e-02 1.23772427e-01 3.39334570e-02
      2.96733797e-01 1.43757341e-02 4.41895984e-02 2.22025253e-02
      2.26796016e-01 2.96733797e-01 2.08272591e-01 2.96733797e-01
      1.08891577e-01 2.96733797e-01 4.14703600e-02 1.04612134e-01
      5.20523079e-02 2.96733797e-01 1.37619212e-01 2.76958067e-02
      4.67454754e-02 1.16490154e-02 1.30318686e-01 5.54754026e-03
      2.40483657e-02 1.03965364e-02 1.38523117e-01 2.96733797e-01
      1.07841246e-01 2.10053951e-01 4.14115861e-02 2.56788045e-01
      1.47597585e-02 4.63324524e-02 2.29984075e-02 2.96733797e-01</_>
    <_>
      2.00519159e-01 8.48699883e-02 2.33862773e-01 1.19476661e-01
      2.99942344e-01 5.56672178e-02 9.89197791e-02 3.80099714e-02
      1.79696247e-01 1.24462239e-01 8.48575979e-02 2.29460195e-01
      9.98986736e-02 2.99942344e-01 5.20902835e-02 1.00750737e-01
      3.47318463e-02 1.11151047e-01 2.16583505e-01 1.34802297e-01
      2.99942344e-01 9.39309672e-02 2.99942344e-01 3.42855826e-02
      4.16039266e-02 2.33894587e-02 1.89868376e-01 1.73740193e-01
      1.26383856e-01 2.83807278e-01 8.36919323e-02 2.99942344e-01
      3.41882706e-02 4.02076095e-02 1.99276246e-02 1.48768589e-01</_>
    <_>
      2.63414294e-01 7.41954669e-02 2.04058602e-01 3.68600711e-02
      2.48523727e-01 1.79796349e-02 1.21463370e-02 7.78979436e-03
      2.63414294e-01 2.27727011e-01 1.71912342e-01 2.63414294e-01
      1.08604655e-01 2.63414294e-01 4.55847159e-02 2.74446234e-02
      1.55986054e-02 2.11401433e-01 1.53311059e-01 1.44226879e-01
      2.63414294e-01 5.57514876e-02 2.63414294e-01 2.69971322e-02
      5.00670485e-02 2.74938997e-02 1.38092041e-01 1.68228745e-01
      2.61907667e-01 2.63414294e-01 5.31618744e-02 2.63414294e-01
      3.19231488e-02 4.36553285e-02 2.39092130e-02 1.29630566e-01</_>
    <_>
      2.81934768e-01 1.06998747e-02 2.42941584e-02 1.32409362e-02
      3.12003106e-01 1.00267967e-02 8.84628296e-03 5.73740387e-03
      2.83182144e-01 2.37175599e-01 8.00890010e-03 1.23615898e-02
      8.62156600e-03 3.12003106e-01 1.10637238e-02 2.13419907e-02
      9.56087001e-03 2.38003805e-01 3.12003106e-01 7.02475524e-03
      1.76438298e-02 1.21561754e-02 3.12003106e-01 9.50850826e-03
      1.14857005e-02 5.05701825e-03 3.12003106e-01 2.61460155e-01
      4.97858459e-03 1.13415513e-02 8.34699254e-03 3.12003106e-01
      1.12894382e-02 1.71543993e-02 7.05809891e-03 2.61466533e-01</_>
    <_>
      4.38883156e-01 2.41435077e-02 2.34611910e-02 2.25343322e-03
      1.07222786e-02 2.13427027e-03 4.69026947e-03 4.31641471e-03
      4.38883156e-01 4.38883156e-01 2.75425985e-02 2.85961591e-02
      6.62499247e-03 1.57735068e-02 3.74682806e-03 5.18266065e-03
      4.40775556e-03 4.38883156e-01 7.45201134e-04 2.85182451e-03
      7.43475882e-03 6.31610921e-04 1.57915021e-03 2.12154177e-04
      6.32782525e-04 4.74000932e-04 7.18424621e-04 5.14978282e-02
      1.78711534e-01 4.18881297e-01 4.59469631e-02 8.09194520e-02
      1.70192271e-02 2.64374167e-02 2.04768069e-02 4.15668078e-02</_>
    <_>
      2.97241837e-01 7.28311166e-02 1.79264694e-01 2.42507793e-02
      2.97241837e-01 2.60246452e-02 5.56776859e-02 3.61731835e-02
      2.97241837e-01 2.97241837e-01 2.23875716e-01 2.97241837e-01
      4.38699499e-02 2.97241837e-01 4.45107371e-02 8.96854028e-02
      6.32682070e-02 2.89498359e-01 8.65605325e-02 3.07106450e-02
      7.12948069e-02 1.09376227e-02 2.97241837e-01 1.46890962e-02
      3.89234312e-02 2.45043077e-02 8.47714767e-02 9.90922302e-02
      8.70035589e-02 1.99659690e-01 1.92283280e-02 2.97241837e-01
      2.78968569e-02 7.60357305e-02 4.47713621e-02 8.87105837e-02</_>
    <_>
      2.12530624e-02 5.79040311e-03 1.71137936e-02 2.61042994e-02
      4.03336346e-01 2.12334804e-02 1.82934329e-02 3.91159812e-03
      2.07384527e-02 2.90775090e-01 7.19864294e-02 1.57976270e-01
      8.51188004e-02 4.03336346e-01 1.69139266e-01 1.93091616e-01
      3.40835750e-02 2.64887422e-01 3.93508608e-03 1.08015782e-03
      5.39016956e-03 1.94519795e-02 4.03336346e-01 9.24786367e-03
      5.96836954e-03 9.94044356e-04 3.63976718e-03 2.03058556e-01
      2.51949411e-02 2.81078555e-02 2.40515657e-02 4.03336346e-01
      5.27233593e-02 5.96988425e-02 1.07762739e-02 1.82073474e-01</_>
    <_>
      1.33270428e-01 3.96291055e-02 7.74091855e-02 5.03982268e-02
      2.98078746e-01 2.47762352e-02 4.06521261e-02 2.49593295e-02
      1.32822543e-01 2.98078746e-01 1.99884534e-01 2.98078746e-01
      1.65574223e-01 2.98078746e-01 6.34063482e-02 9.77842063e-02
      6.12088852e-02 2.98078746e-01 7.76213929e-02 1.78489722e-02
      2.64599882e-02 2.32095663e-02 2.98078746e-01 1.07821841e-02
      1.89348254e-02 1.30815068e-02 7.62087777e-02 2.98078746e-01
      1.01541311e-01 1.92106068e-01 5.29793650e-02 2.98078746e-01
      2.37575676e-02 4.62459773e-02 3.30634862e-02 2.92005420e-01</_>
    <_>
      2.80862957e-01 1.13214785e-02 2.87509356e-02 2.26379633e-02
      3.35262537e-01 1.45841669e-02 1.23278461e-02 6.74367882e-03
      2.79854089e-01 2.38165125e-01 9.01184510e-03 1.90722700e-02
      1.85108501e-02 3.35262537e-01 2.29213499e-02 2.98053529e-02
      1.28285279e-02 2.35656440e-01 2.83521116e-01 7.91759416e-03
      1.97885130e-02 2.51283832e-02 3.35262537e-01 1.60802491e-02
      1.87179781e-02 8.32445361e-03 2.82794356e-01 2.33810037e-01
      6.50014356e-03 1.48654869e-02 1.86255500e-02 3.35262537e-01
      2.22902950e-02 2.73859352e-02 1.13372272e-02 2.33603567e-01</_>
    <_>
      2.66388953e-01 7.82977790e-02 1.91215008e-01 2.32477672e-02
      2.66388953e-01 2.21742876e-02 1.54290311e-02 1.14356885e-02
      2.66388953e-01 1.77423581e-01 1.44443303e-01 2.66388953e-01
      4.74218614e-02 2.66388953e-01 2.88090613e-02 2.12261658e-02
      1.26959309e-02 1.64037377e-01 2.09094763e-01 1.46152511e-01
      2.66388953e-01 2.86271907e-02 2.66388953e-01 2.59055197e-02
      4.34307866e-02 2.77450029e-02 2.06124902e-01 1.92864567e-01
      2.17592418e-01 2.66388953e-01 3.92341167e-02 2.66388953e-01
      3.22171152e-02 4.03946713e-02 2.34723948e-02 1.74972489e-01</_>
    <_>
      2.48364285e-02 6.36899006e-03 1.04595385e-02 3.90791846e-03
      2.21083283e-01 2.77577038e-03 9.68386792e-03 6.69673411e-03
      2.58018449e-02 3.61574441e-01 2.47158974e-01 3.14030856e-01
      1.43609986e-01 3.61574441e-01 2.98523098e-01 3.22094351e-01
      1.09880500e-01 3.61574441e-01 3.47125940e-02 6.02753647e-03
      8.06834828e-03 1.46364979e-03 2.31904849e-01 5.49106102e-04
      4.99510998e-03 5.66159608e-03 3.57310027e-02 9.57932100e-02
      4.44121696e-02 2.60751508e-02 7.12239975e-03 2.99791217e-01
      2.95079146e-02 3.20662446e-02 1.34165380e-02 9.05014053e-02</_>
    <_>
      4.79919985e-02 1.16503462e-02 2.01347712e-02 6.13049744e-03
      3.41062188e-01 4.23769094e-03 1.87394563e-02 1.21377409e-02
      4.97448556e-02 2.93232441e-01 2.32192576e-01 2.05942228e-01
      9.13790986e-02 3.41062188e-01 3.41062188e-01 3.41062188e-01
      9.38655958e-02 2.60502905e-01 6.70911074e-02 1.20993387e-02
      1.65422931e-02 3.46148433e-03 3.41062188e-01 1.46243488e-03
      1.04724104e-02 1.12683084e-02 6.94873109e-02 8.34539235e-02
      2.72979811e-02 1.32306805e-02 2.91316537e-03 3.41062188e-01
      1.51298754e-02 2.15259474e-02 1.51644936e-02 8.14207047e-02</_>
    <_>
      3.17064613e-01 1.99100859e-02 6.25054687e-02 2.94912383e-02
      2.92136192e-01 1.17078386e-02 5.86822676e-03 4.60298266e-03
      3.17064613e-01 3.17064613e-01 7.12903515e-02 2.86611229e-01
      1.16954982e-01 3.17064613e-01 4.27438468e-02 1.76674314e-02
      1.35112032e-02 3.17064613e-01 4.12174836e-02 3.83704826e-02
      1.01250038e-01 5.18421978e-02 3.17064613e-01 2.01111380e-02
      8.32540356e-03 1.36867221e-02 3.12057864e-02 9.79530588e-02
      6.80962875e-02 2.13360563e-01 1.13692664e-01 3.17064613e-01
      4.30190563e-02 1.58322882e-02 2.66059693e-02 7.71308541e-02</_>
    <_>
      4.09699351e-01 1.78310312e-02 3.63044031e-02 4.12205094e-03
      3.50987092e-02 3.31108854e-03 7.28427945e-03 4.92773158e-03
      4.09699351e-01 4.09699351e-01 8.32178146e-02 2.00646043e-01
      1.39476329e-01 4.09699351e-01 1.69115648e-01 1.97199896e-01
      1.38212532e-01 4.09699351e-01 0. 0. 0. 0. 3.36630791e-07 0. 0. 0.
      0. 9.25018452e-03 3.01874010e-03 4.41214535e-03 1.43856194e-03
      5.68806520e-03 1.72933866e-03 6.49932027e-03 7.60735059e-03
      1.36513961e-02</_>
    <_>
      1.29005790e-01 2.75967885e-02 4.18747663e-02 1.33558288e-02
      2.74127841e-01 1.40346373e-02 3.55900936e-02 1.59414075e-02
      1.29578054e-01 3.14370602e-01 1.99441150e-01 3.14370602e-01
      8.14338475e-02 3.14370602e-01 4.85912114e-02 1.18508309e-01
      5.86288869e-02 3.14370602e-01 9.49544981e-02 1.69530921e-02
      2.28006151e-02 6.56206254e-03 1.25186473e-01 8.52924492e-03
      2.34738551e-02 8.33938085e-03 9.43979770e-02 3.14370602e-01
      1.35828480e-01 2.70244509e-01 3.44166383e-02 2.94492334e-01
      2.84004677e-02 8.91128778e-02 3.69131938e-02 3.14370602e-01</_>
    <_>
      2.93074727e-01 7.26657826e-03 2.69313343e-02 1.54519314e-02
      2.93074727e-01 9.28228162e-03 9.32607427e-03 6.10818667e-03
      2.93074727e-01 2.92734385e-01 6.01279549e-03 1.81385204e-02
      1.02516208e-02 2.93074727e-01 8.92549288e-03 1.34705305e-02
      7.40165915e-03 2.93074727e-01 2.93074727e-01 5.00308583e-03
      1.53025752e-02 9.94274858e-03 2.93074727e-01 8.02890211e-03
      7.86756445e-03 5.47346985e-03 2.93074727e-01 2.60873199e-01
      4.89268266e-03 1.07810833e-02 8.37445259e-03 2.93074727e-01
      5.65068983e-03 5.44619560e-03 3.88723286e-03 2.59756058e-01</_>
    <_>
      2.76728153e-01 5.61962947e-02 1.23457775e-01 2.38092635e-02
      2.76728153e-01 1.34163639e-02 4.41712067e-02 3.21857072e-02
      2.76728153e-01 2.05637366e-01 2.20679983e-01 2.76728153e-01
      3.72441784e-02 2.76728153e-01 2.35779881e-02 4.90666106e-02
      3.86007987e-02 1.83976367e-01 2.76728153e-01 2.60294732e-02
      6.08376451e-02 1.88504122e-02 2.76728153e-01 1.24931699e-02
      2.90231369e-02 2.15817783e-02 2.76728153e-01 2.50848621e-01
      7.42058381e-02 1.35349721e-01 1.40309958e-02 2.76728153e-01
      1.14348568e-02 3.33575420e-02 2.25437656e-02 2.45606005e-01</_>
    <_>
      2.88074493e-01 7.55295008e-02 2.16517195e-01 3.03995721e-02
      7.44082406e-02 8.39693565e-03 9.88826249e-03 8.09275452e-03
      2.88074493e-01 2.88074493e-01 2.23599508e-01 2.88074493e-01
      7.94284418e-02 1.65204540e-01 2.50927825e-02 2.08153799e-02
      1.80713199e-02 2.88074493e-01 8.59571099e-02 1.38021916e-01
      2.88074493e-01 1.03716098e-01 1.99733317e-01 2.63869073e-02
      5.54824099e-02 2.76699513e-02 7.13868067e-02 1.63005829e-01
      2.88074493e-01 2.88074493e-01 8.35156068e-02 2.33764589e-01
      2.80231927e-02 4.50481921e-02 2.65938696e-02 1.02570109e-01</_>
    <_>
      2.72542596e-01 4.17785905e-02 1.31616786e-01 3.52176242e-02
      2.83121586e-01 1.99699290e-02 2.79145036e-02 1.29318088e-02
      2.48794109e-01 2.07756564e-01 7.94431344e-02 2.69832879e-01
      6.06998354e-02 2.83121586e-01 3.66307572e-02 7.74970725e-02
      2.69107390e-02 1.99615553e-01 1.34221494e-01 1.06072702e-01
      2.83121586e-01 4.58628833e-02 2.83121586e-01 2.83894371e-02
      2.79143825e-02 2.02220231e-02 1.33187592e-01 2.10792392e-01
      2.05447003e-01 2.83121586e-01 7.52691999e-02 2.83121586e-01
      4.15957160e-02 5.31160757e-02 2.20272243e-02 1.89889759e-01</_>
    <_>
      3.33707333e-01 3.10923774e-02 7.92367309e-02 2.59035379e-02
      3.33707333e-01 3.14901918e-02 1.04308382e-01 3.94678675e-02
      3.33707333e-01 1.13359056e-01 4.18077372e-02 1.08075060e-01
      3.01424786e-02 3.33707333e-01 2.72712894e-02 9.71740484e-02
      3.74154262e-02 1.09082036e-01 9.36541781e-02 9.70633030e-02
      2.58749962e-01 4.99116257e-02 3.33707333e-01 3.14157270e-02
      2.81596426e-02 1.71314739e-02 9.05034319e-02 7.08967447e-02
      1.22416601e-01 3.33707333e-01 1.35945410e-01 3.33707333e-01
      4.28031348e-02 4.01746333e-02 2.69100536e-02 6.75329864e-02</_>
    <_>
      1.51271045e-01 3.00318748e-02 8.09905007e-02 3.27330604e-02
      3.40944111e-01 2.20438186e-02 1.56923365e-02 1.08651686e-02
      1.46776959e-01 1.94815174e-01 1.02453381e-01 2.39924863e-01
      5.72618172e-02 3.40944111e-01 5.24632260e-02 2.13299170e-02
      1.89668443e-02 1.95505753e-01 1.17398858e-01 7.95043930e-02
      1.89477757e-01 3.68212722e-02 3.40944111e-01 2.64995024e-02
      1.74737237e-02 1.56198926e-02 1.16926618e-01 1.90224603e-01
      2.45453730e-01 3.40944111e-01 6.76803514e-02 3.40944111e-01
      5.04320376e-02 3.89661081e-02 3.74794453e-02 1.78109825e-01</_>
    <_>
      2.54224718e-01 1.08105578e-01 2.51747787e-01 8.15876052e-02
      2.79028147e-01 4.11183350e-02 3.48841399e-02 2.33090017e-02
      2.36971751e-01 1.44029185e-01 1.18999183e-01 2.69541472e-01
      1.02577731e-01 2.79028147e-01 4.39239964e-02 2.57834923e-02
      1.61132254e-02 1.27508730e-01 2.61701167e-01 1.06324114e-01
      2.10585311e-01 5.23773208e-02 2.79028147e-01 1.84813924e-02
      2.35931687e-02 1.91899333e-02 2.46199608e-01 2.03197241e-01
      1.21915177e-01 2.41823986e-01 6.23449087e-02 2.79028147e-01
      2.51571853e-02 1.81025174e-02 1.55117810e-02 1.84807077e-01</_>
    <_>
      2.13207290e-01 4.01510298e-02 8.43407661e-02 3.37812342e-02
      3.24157804e-01 2.93482635e-02 9.86172631e-03 1.08012864e-02
      2.13379383e-01 2.07845271e-01 1.19436331e-01 1.82909697e-01
      6.74611107e-02 3.24157804e-01 9.10356715e-02 2.55613402e-02
      1.93909705e-02 2.05965549e-01 1.18587077e-01 1.03403330e-01
      2.56894648e-01 3.94020937e-02 3.24157804e-01 3.01640220e-02
      1.79294385e-02 1.86053216e-02 1.18157864e-01 1.64843157e-01
      2.16513008e-01 3.24157804e-01 8.32935721e-02 3.24157804e-01
      6.85690492e-02 3.32919732e-02 3.02887615e-02 1.63314492e-01</_>
    <_>
      6.20784871e-02 1.82010736e-02 3.27023454e-02 2.98042540e-02
      3.35371464e-01 4.18139696e-02 2.60134451e-02 1.39219826e-02
      6.21540956e-02 3.35371464e-01 2.11012289e-01 3.35371464e-01
      1.65164530e-01 3.35371464e-01 1.36906937e-01 1.08592845e-01
      6.46672919e-02 3.35371464e-01 4.93731014e-02 9.42672975e-03
      1.19969454e-02 1.77184064e-02 3.35371464e-01 2.07043979e-02
      1.09346546e-02 7.80141959e-03 4.85335514e-02 1.90613016e-01
      6.08395673e-02 8.05106014e-02 3.08330376e-02 3.35371464e-01
      4.71474305e-02 3.15848589e-02 1.97103173e-02 1.82091936e-01</_>
    <_>
      3.03773850e-01 2.75828093e-02 5.77522777e-02 1.51952421e-02
      3.03773850e-01 2.00994015e-02 4.22318690e-02 2.57008597e-02
      3.03773850e-01 2.99649954e-01 1.83549911e-01 3.03773850e-01
      4.39059027e-02 3.03773850e-01 5.42378202e-02 1.14032999e-01
      6.41180873e-02 3.02037716e-01 1.68440849e-01 8.51524435e-03
